{"learner":{"attributes":{"scikit_learn":"{\"_estimator_type\": \"classifier\"}"},"feature_names":["arp.opcode","arp.hw.size","icmp.checksum","icmp.seq_le","icmp.transmit_timestamp","icmp.unused","http.content_length","http.response","http.tls_port","tcp.ack","tcp.ack_raw","tcp.checksum","tcp.connection.fin","tcp.connection.rst","tcp.connection.syn","tcp.connection.synack","tcp.dstport","tcp.flags","tcp.flags.ack","tcp.len","tcp.seq","udp.port","udp.stream","udp.time_delta","dns.qry.qu","dns.qry.type","dns.retransmission","dns.retransmit_request","dns.retransmit_request_in","mqtt.conflag.cleansess","mqtt.conflags","mqtt.hdrflags","mqtt.len","mqtt.msg_decoded_as","mqtt.msgtype","mqtt.proto_len","mqtt.topic_len","mqtt.ver","mbtcp.len","mbtcp.trans_id","mbtcp.unit_id","http.request.method_encoded","http.request.version_encoded","mqtt_topic","mqtt_protoname"],"feature_types":["float","float","float","float","float","float","float","float","float","float","float","float","float","float","float","float","float","float","float","float","float","float","float","float","float","float","float","float","float","float","float","float","float","float","float","float","float","float","float","float","float","int","int","int","int"],"gradient_booster":{"model":{"gbtree_model_param":{"num_parallel_tree":"1","num_trees":"1500"},"iteration_indptr":[0,15,30,45,60,75,90,105,120,135,150,165,180,195,210,225,240,255,270,285,300,315,330,345,360,375,390,405,420,435,450,465,480,495,510,525,540,555,570,585,600,615,630,645,660,675,690,705,720,735,750,765,780,795,810,825,840,855,870,885,900,915,930,945,960,975,990,1005,1020,1035,1050,1065,1080,1095,1110,1125,1140,1155,1170,1185,1200,1215,1230,1245,1260,1275,1290,1305,1320,1335,1350,1365,1380,1395,1410,1425,1440,1455,1470,1485,1500],"tree_info":[0,1,2,3,4,5,6,7,8,9,10,11,12,13,14,0,1,2,3,4,5,6,7,8,9,10,11,12,13,14,0,1,2,3,4,5,6,7,8,9,10,11,12,13,14,0,1,2,3,4,5,6,7,8,9,10,11,12,13,14,0,1,2,3,4,5,6,7,8,9,10,11,12,13,14,0,1,2,3,4,5,6,7,8,9,10,11,12,13,14,0,1,2,3,4,5,6,7,8,9,10,11,12,13,14,0,1,2,3,4,5,6,7,8,9,10,11,12,13,14,0,1,2,3,4,5,6,7,8,9,10,11,12,13,14,0,1,2,3,4,5,6,7,8,9,10,11,12,13,14,0,1,2,3,4,5,6,7,8,9,10,11,12,13,14,0,1,2,3,4,5,6,7,8,9,10,11,12,13,14,0,1,2,3,4,5,6,7,8,9,10,11,12,13,14,0,1,2,3,4,5,6,7,8,9,10,11,12,13,14,0,1,2,3,4,5,6,7,8,9,10,11,12,13,14,0,1,2,3,4,5,6,7,8,9,10,11,12,13,14,0,1,2,3,4,5,6,7,8,9,10,11,12,13,14,0,1,2,3,4,5,6,7,8,9,10,11,12,13,14,0,1,2,3,4,5,6,7,8,9,10,11,12,13,14,0,1,2,3,4,5,6,7,8,9,10,11,12,13,14,0,1,2,3,4,5,6,7,8,9,10,11,12,13,14,0,1,2,3,4,5,6,7,8,9,10,11,12,13,14,0,1,2,3,4,5,6,7,8,9,10,11,12,13,14,0,1,2,3,4,5,6,7,8,9,10,11,12,13,14,0,1,2,3,4,5,6,7,8,9,10,11,12,13,14,0,1,2,3,4,5,6,7,8,9,10,11,12,13,14,0,1,2,3,4,5,6,7,8,9,10,11,12,13,14,0,1,2,3,4,5,6,7,8,9,10,11,12,13,14,0,1,2,3,4,5,6,7,8,9,10,11,12,13,14,0,1,2,3,4,5,6,7,8,9,10,11,12,13,14,0,1,2,3,4,5,6,7,8,9,10,11,12,13,14,0,1,2,3,4,5,6,7,8,9,10,11,12,13,14,0,1,2,3,4,5,6,7,8,9,10,11,12,13,14,0,1,2,3,4,5,6,7,8,9,10,11,12,13,14,0,1,2,3,4,5,6,7,8,9,10,11,12,13,14,0,1,2,3,4,5,6,7,8,9,10,11,12,13,14,0,1,2,3,4,5,6,7,8,9,10,11,12,13,14,0,1,2,3,4,5,6,7,8,9,10,11,12,13,14,0,1,2,3,4,5,6,7,8,9,10,11,12,13,14,0,1,2,3,4,5,6,7,8,9,10,11,12,13,14,0,1,2,3,4,5,6,7,8,9,10,11,12,13,14,0,1,2,3,4,5,6,7,8,9,10,11,12,13,14,0,1,2,3,4,5,6,7,8,9,10,11,12,13,14,0,1,2,3,4,5,6,7,8,9,10,11,12,13,14,0,1,2,3,4,5,6,7,8,9,10,11,12,13,14,0,1,2,3,4,5,6,7,8,9,10,11,12,13,14,0,1,2,3,4,5,6,7,8,9,10,11,12,13,14,0,1,2,3,4,5,6,7,8,9,10,11,12,13,14,0,1,2,3,4,5,6,7,8,9,10,11,12,13,14,0,1,2,3,4,5,6,7,8,9,10,11,12,13,14,0,1,2,3,4,5,6,7,8,9,10,11,12,13,14,0,1,2,3,4,5,6,7,8,9,10,11,12,13,14,0,1,2,3,4,5,6,7,8,9,10,11,12,13,14,0,1,2,3,4,5,6,7,8,9,10,11,12,13,14,0,1,2,3,4,5,6,7,8,9,10,11,12,13,14,0,1,2,3,4,5,6,7,8,9,10,11,12,13,14,0,1,2,3,4,5,6,7,8,9,10,11,12,13,14,0,1,2,3,4,5,6,7,8,9,10,11,12,13,14,0,1,2,3,4,5,6,7,8,9,10,11,12,13,14,0,1,2,3,4,5,6,7,8,9,10,11,12,13,14,0,1,2,3,4,5,6,7,8,9,10,11,12,13,14,0,1,2,3,4,5,6,7,8,9,10,11,12,13,14,0,1,2,3,4,5,6,7,8,9,10,11,12,13,14,0,1,2,3,4,5,6,7,8,9,10,11,12,13,14,0,1,2,3,4,5,6,7,8,9,10,11,12,13,14,0,1,2,3,4,5,6,7,8,9,10,11,12,13,14,0,1,2,3,4,5,6,7,8,9,10,11,12,13,14,0,1,2,3,4,5,6,7,8,9,10,11,12,13,14,0,1,2,3,4,5,6,7,8,9,10,11,12,13,14,0,1,2,3,4,5,6,7,8,9,10,11,12,13,14,0,1,2,3,4,5,6,7,8,9,10,11,12,13,14,0,1,2,3,4,5,6,7,8,9,10,11,12,13,14,0,1,2,3,4,5,6,7,8,9,10,11,12,13,14,0,1,2,3,4,5,6,7,8,9,10,11,12,13,14,0,1,2,3,4,5,6,7,8,9,10,11,12,13,14,0,1,2,3,4,5,6,7,8,9,10,11,12,13,14,0,1,2,3,4,5,6,7,8,9,10,11,12,13,14,0,1,2,3,4,5,6,7,8,9,10,11,12,13,14,0,1,2,3,4,5,6,7,8,9,10,11,12,13,14,0,1,2,3,4,5,6,7,8,9,10,11,12,13,14,0,1,2,3,4,5,6,7,8,9,10,11,12,13,14,0,1,2,3,4,5,6,7,8,9,10,11,12,13,14,0,1,2,3,4,5,6,7,8,9,10,11,12,13,14,0,1,2,3,4,5,6,7,8,9,10,11,12,13,14,0,1,2,3,4,5,6,7,8,9,10,11,12,13,14,0,1,2,3,4,5,6,7,8,9,10,11,12,13,14,0,1,2,3,4,5,6,7,8,9,10,11,12,13,14,0,1,2,3,4,5,6,7,8,9,10,11,12,13,14,0,1,2,3,4,5,6,7,8,9,10,11,12,13,14,0,1,2,3,4,5,6,7,8,9,10,11,12,13,14,0,1,2,3,4,5,6,7,8,9,10,11,12,13,14,0,1,2,3,4,5,6,7,8,9,10,11,12,13,14,0,1,2,3,4,5,6,7,8,9,10,11,12,13,14,0,1,2,3,4,5,6,7,8,9,10,11,12,13,14,0,1,2,3,4,5,6,7,8,9,10,11,12,13,14,0,1,2,3,4,5,6,7,8,9,10,11,12,13,14,0,1,2,3,4,5,6,7,8,9,10,11,12,13,14,0,1,2,3,4,5,6,7,8,9,10,11,12,13,14,0,1,2,3,4,5,6,7,8,9,10,11,12,13,14,0,1,2,3,4,5,6,7,8,9,10,11,12,13,14],"trees":[{"base_weights":[-3.0731358E-2,-2.2510457E-1,2.2895014E0,-4.720687E-1,1.5987295E0,3.6935673E0,-5.310097E-2,-4.7957838E-1,7.894736E-1,6.919688E0,9.007175E-1,6.3645644E0,1.2283542E0,-4.8881087E-1,2.1174157E-1,1.7565154E0,-4.8259147E-2,-3.3106964E-2,7.1414557E0,-4.28689E-1,2.1710405E0,7.3264015E-1,5.055009E0,-4.7640586E-1,7.0742136E-1,-5.1747394E-1,-4.227859E-1,4.9551646E-3,4.2716317E-2,4.2253518E-1,2.141764E-1,-2.970297E-2,7.321234E-1,-5.2132463E-1,4.526591E-2,7.1003423E0,-1.9731556E-1,2.7868125E0,7.122149E-1,-5.1883334E-1,8.124174E-2,-4.865692E-2,-5.353656E-2,2.1478422E-1,-5.1772118E-2,-4.0923398E-2,6.569343E-2,-5.3263284E-2,2.1796564E-2,-5.1408578E-2,1.23800375E-1,-3.6376607E-2,7.333804E-1,-5.309787E-2,8.2228586E-2,1.0331728E-1,6.045007E-1,-3.0733643E-2,-5.2943017E-2],"categories":[],"categories_nodes":[],"categories_segments":[],"categories_sizes":[],"default_left":[0,0,0,0,0,0,0,0,0,0,0,0,0,0,0,0,0,0,0,0,0,0,0,0,0,0,0,0,0,0,0,0,0,0,0,0,0,0,0,0,0,0,0,0,0,0,0,0,0,0,0,0,0,0,0,0,0,0,0],"id":0,"left_children":[1,3,5,7,9,11,-1,13,15,17,19,21,23,25,27,29,-1,-1,31,33,35,-1,37,39,-1,41,43,-1,-1,-1,45,-1,-1,47,49,51,53,55,-1,57,-1,-1,-1,-1,-1,-1,-1,-1,-1,-1,-1,-1,-1,-1,-1,-1,-1,-1,-1],"loss_changes":[1.9836355E3,1.828684E3,1.3483712E3,3.424774E1,1.7921973E3,1.4876421E3,0E0,2.2790527E1,2.7336693E1,9.241821E1,7.257757E2,9.996777E1,1.1927539E3,6.419983E0,1.6399212E0,4.6497696E1,0E0,0E0,7.4904785E1,9.268452E0,2.5656572E3,0E0,2.1123083E2,5.52536E0,0E0,1.0895386E0,2.6159497E2,0E0,0E0,0E0,2.6745062E0,0E0,0E0,1.5892868E0,2.421832E1,1.2693335E2,5.1241837E1,1.3740953E2,0E0,4.1175842E-2,0E0,0E0,0E0,0E0,0E0,0E0,0E0,0E0,0E0,0E0,0E0,0E0,0E0,0E0,0E0,0E0,0E0,0E0,0E0],"parents":[2147483647,0,0,1,1,2,2,3,3,4,4,5,5,7,7,8,8,9,9,10,10,11,11,12,12,13,13,14,14,15,15,18,18,19,19,20,20,22,22,23,23,25,25,26,26,30,30,33,33,34,34,35,35,36,36,37,37,39,39],"right_children":[2,4,6,8,10,12,-1,14,16,18,20,22,24,26,28,30,-1,-1,32,34,36,-1,38,40,-1,42,44,-1,-1,-1,46,-1,-1,48,50,52,54,56,-1,58,-1,-1,-1,-1,-1,-1,-1,-1,-1,-1,-1,-1,-1,-1,-1,-1,-1,-1,-1],"split_conditions":[1.15743E5,5.6322E4,4.531E3,5.0069E4,5.6396E4,4.51E2,-5.310097E-2,1E0,4.531E3,1E0,6.021E4,3.08E2,4.77E2,4.321E3,2E0,4.05E2,-4.8259147E-2,-3.3106964E-2,1E0,1E0,6.0236E4,7.3264015E-1,3.23E2,1.296801E6,7.0742136E-1,8E1,4.531E3,4.9551646E-3,4.2716317E-2,4.2253518E-1,2.8118E4,-2.970297E-2,7.321234E-1,4.94E2,1E0,1E0,1E0,1.115393E6,7.122149E-1,4.702E3,8.124174E-2,-4.865692E-2,-5.353656E-2,2.1478422E-1,-5.1772118E-2,-4.0923398E-2,6.569343E-2,-5.3263284E-2,2.1796564E-2,-5.1408578E-2,1.23800375E-1,-3.6376607E-2,7.333804E-1,-5.309787E-2,8.2228586E-2,1.0331728E-1,6.045007E-1,-3.0733643E-2,-5.2943017E-2],"split_indices":[20,16,16,20,16,19,0,0,16,41,16,19,19,16,0,19,0,0,43,13,16,0,19,20,0,16,16,0,0,0,11,0,0,19,18,41,13,20,0,11,0,0,0,0,0,0,0,0,0,0,0,0,0,0,0,0,0,0,0],"split_type":[0,0,0,0,0,0,0,0,0,0,0,0,0,0,0,0,0,0,0,0,0,0,0,0,0,0,0,0,0,0,0,0,0,0,0,0,0,0,0,0,0,0,0,0,0,0,0,0,0,0,0,0,0,0,0,0,0,0,0],"sum_hessian":[4.396249E3,4.0572625E3,3.389867E2,3.5740447E3,4.832178E2,2.2611557E2,1.12871124E2,3.5535115E3,2.0533335E1,5.5004448E1,4.2821338E2,1.077689E2,1.1834668E2,3.5069692E3,4.6542225E1,1.144889E1,9.084445E0,1.617778E0,5.3386673E1,2.0956447E2,2.1864891E2,5.948445E1,4.8284447E1,9.233778E1,2.600889E1,2.4406047E3,1.0663645E3,2.7253336E1,1.928889E1,3.7333336E0,7.715556E0,1.2444446E0,5.2142227E1,1.7521779E2,3.434667E1,7.031112E1,1.4833778E2,2.4142223E1,2.4142223E1,8.997334E1,2.3644447E0,9.05209E2,1.5353956E3,3.7208893E1,1.0291556E3,3.235556E0,4.4800005E0,1.7285335E2,2.3644447E0,2.376889E1,1.0577779E1,2.1155558E0,6.8195564E1,1.1212445E2,3.6213337E1,1.6551113E1,7.5911117E0,5.724445E0,8.424889E1],"tree_param":{"num_deleted":"0","num_feature":"45","num_nodes":"59","size_leaf_vector":"1"}},{"base_weights":[8.621038E-3,1.0533978E0,-5.355298E-2,2.1398675E0,3.281215E-1,1.0808244E0,7.291352E0,1.9803607E0,-3.3176717E-1,2.2893066E0,3.4958694E-2,7.386895E-1,1.1257034E-2,6.279299E-1,5.5121207E0,-5.1297E-1,-2.3028888E-3,-5.0260913E-2,2.4857979E-1,-1.0501879E-1,1.315396E0,-1.4660524E-1,1.9410084E0,5.939263E0,-4.4220325E-2,-5.34163E-2,-4.0843564E-1,5.409836E0,-3.0188146E-1,-1.8618954E-3,-5.229416E-2,6.0371514E-2,3.5653102E-1,1.6218312E-1,-2.8094126E-2,3.1979176E-1,-3.964642E-2,6.526315E-1,2.342799E-1,3.5971198E-3,-5.266712E-2,1.5405405E-1,6.564792E-1,7.481857E-2,-5.2184373E-2],"categories":[],"categories_nodes":[],"categories_segments":[],"categories_sizes":[],"default_left":[0,0,0,0,0,0,0,0,0,0,0,0,0,0,0,0,0,0,0,0,0,0,0,0,0,0,0,0,0,0,0,0,0,0,0,0,0,0,0,0,0,0,0,0,0],"id":1,"left_children":[1,3,-1,5,7,9,11,13,15,17,19,-1,-1,21,23,25,27,-1,-1,29,31,33,35,37,-1,-1,39,41,43,-1,-1,-1,-1,-1,-1,-1,-1,-1,-1,-1,-1,-1,-1,-1,-1],"loss_changes":[2.5108713E3,1.191136E3,0E0,3.294433E3,9.908621E2,6.3599274E2,6.984375E1,1.2352981E3,3.8794975E1,1.2932361E2,4.867348E1,0E0,0E0,1.9215884E2,1.8494458E2,7.106476E-1,3.7713312E2,0E0,0E0,8.83812E0,4.0696247E1,2.886732E1,2.0712305E2,1.2607422E2,0E0,0E0,3.9555922E0,4.440683E1,5.129634E1,0E0,0E0,0E0,0E0,0E0,0E0,0E0,0E0,0E0,0E0,0E0,0E0,0E0,0E0,0E0,0E0],"parents":[2147483647,0,0,1,1,3,3,4,4,5,5,6,6,7,7,8,8,9,9,10,10,13,13,14,14,15,15,16,16,19,19,20,20,21,21,22,22,23,23,26,26,27,27,28,28],"right_children":[2,4,-1,6,8,10,12,14,16,18,20,-1,-1,22,24,26,28,-1,-1,30,32,34,36,38,-1,-1,40,42,44,-1,-1,-1,-1,-1,-1,-1,-1,-1,-1,-1,-1,-1,-1,-1,-1],"split_conditions":[1E0,2E0,-5.355298E-2,2.4E1,2E0,4E0,1.265E3,4.41E2,4.87E2,2E0,2.79E2,7.386895E-1,1.1257034E-2,2.62E2,1.441E3,4.86E2,4.97E2,-5.0260913E-2,2.4857979E-1,2E1,1E0,8.7E1,1E0,1.7E1,-4.4220325E-2,-5.34163E-2,4.89E2,4.41E2,1.265E3,-1.8618954E-3,-5.229416E-2,6.0371514E-2,3.5653102E-1,1.6218312E-1,-2.8094126E-2,3.1979176E-1,-3.964642E-2,6.526315E-1,2.342799E-1,3.5971198E-3,-5.266712E-2,1.5405405E-1,6.564792E-1,7.481857E-2,-5.2184373E-2],"split_indices":[41,9,0,17,20,17,20,9,20,17,20,0,0,9,9,9,20,0,0,17,9,9,7,17,0,0,9,9,20,0,0,0,0,0,0,0,0,0,0,0,0,0,0,0,0],"split_type":[0,0,0,0,0,0,0,0,0,0,0,0,0,0,0,0,0,0,0,0,0,0,0,0,0,0,0,0,0,0,0,0,0,0,0,0,0,0,0,0,0,0,0,0,0],"sum_hessian":[4.4145425E3,1.5115023E3,2.9030403E3,6.0430225E2,9.072001E2,5.022578E2,1.0204446E2,2.5834668E2,6.488534E2,2.3246223E2,2.697956E2,1.0067557E2,1.368889E0,1.8766223E2,7.068445E1,4.182578E2,2.3059558E2,1.5182223E1,2.1728001E2,2.4403558E2,2.5760002E1,1.18595566E2,6.906667E1,6.595556E1,4.7288895E0,3.443378E2,7.3920006E1,1.1200001E1,2.1939557E2,2.0309335E2,4.0942226E1,2.0533335E1,5.226667E0,7.5911117E0,1.11004456E2,4.467556E1,2.4391113E1,5.6000004E1,9.955557E0,1.5680001E1,5.8240005E1,3.1111114E0,8.088889E0,3.7582226E1,1.8181335E2],"tree_param":{"num_deleted":"0","num_feature":"45","num_nodes":"45","size_leaf_vector":"1"}},{"base_weights":[1.8650109E-1,-5.3207415E-1,7.1795006E0,-5.3557884E-2,-1.5528674E-1,4.0977708E-1,7.480903E-1,3.7846762E-1,-5.2076876E-2,5.648535E-1,-3.874539E-2,-2.8301885E-2,6.4806473E-1,9.334297E-1,1.5151513E-1,6.280027E-2,1.2128418E-1,-3.5661217E-2,4.4840883E-2],"categories":[],"categories_nodes":[],"categories_segments":[],"categories_sizes":[],"default_left":[0,0,0,0,0,0,0,0,0,0,0,0,0,0,0,0,0,0,0],"id":2,"left_children":[1,3,5,-1,7,9,-1,-1,-1,11,-1,-1,13,15,17,-1,-1,-1,-1],"loss_changes":[2.2126246E4,5.1899414E0,8.341133E2,0E0,5.6991188E1,2.5118113E0,0E0,0E0,0E0,1.3075514E0,0E0,0E0,1.9575891E0,2.4598122E-2,1.1555828E0,0E0,0E0,0E0,0E0],"parents":[2147483647,0,0,1,1,2,2,4,4,5,5,9,9,12,12,13,13,14,14],"right_children":[2,4,6,-1,8,10,-1,-1,-1,12,-1,-1,14,16,18,-1,-1,-1,-1],"split_conditions":[3.96E2,6.038E3,3.74E2,-5.3557884E-2,1.22E3,7.647191E7,7.480903E-1,3.7846762E-1,-5.2076876E-2,4.373E3,-3.874539E-2,-2.8301885E-2,4.1254E4,3.2211E4,5.1557E4,6.280027E-2,1.2128418E-1,-3.5661217E-2,4.4840883E-2],"split_indices":[2,3,3,0,22,4,0,0,0,2,0,0,2,2,2,0,0,0,0],"split_type":[0,0,0,0,0,0,0,0,0,0,0,0,0,0,0,0,0,0,0],"sum_hessian":[4.401476E3,3.9921782E3,4.0929782E2,3.9549692E3,3.7208893E1,1.7546669E1,3.9175113E2,2.3644447E0,3.4844448E1,1.4933334E1,2.6133335E0,1.1200001E0,1.3813334E1,8.213334E0,5.6000004E0,5.475556E0,2.737778E0,1.9911113E0,3.608889E0],"tree_param":{"num_deleted":"0","num_feature":"45","num_nodes":"19","size_leaf_vector":"1"}},{"base_weights":[-2.874416E-2,-2.80767E-1,3.9132953E0,-5.049263E-1,1.7189978E0,-5.3117823E-2,7.4490994E-1,-5.352946E-2,1.299849E0,-5.3392954E-2,7.436428E-1,-5.2450478E-2,7.002065E-1],"categories":[],"categories_nodes":[],"categories_segments":[],"categories_sizes":[],"default_left":[0,0,0,0,0,0,0,0,0,0,0,0,0],"id":3,"left_children":[1,3,5,7,9,-1,-1,-1,11,-1,-1,-1,-1],"loss_changes":[4.3721675E3,1.8550258E3,4.1597144E3,2.0458917E2,5.3771616E3,0E0,0E0,0E0,6.4712415E2,0E0,0E0,0E0,0E0],"parents":[2147483647,0,0,1,1,2,2,3,3,4,4,8,8],"right_children":[2,4,6,8,10,-1,-1,-1,12,-1,-1,-1,-1],"split_conditions":[2.0541498E8,1E0,3.3E1,2.373441E6,2E0,-5.3117823E-2,7.4490994E-1,-5.352946E-2,3.3E1,-5.3392954E-2,7.436428E-1,-5.2450478E-2,7.002065E-1],"split_indices":[9,13,19,9,9,0,0,0,19,0,0,0,0],"split_type":[0,0,0,0,0,0,0,0,0,0,0,0,0],"sum_hessian":[4.3987383E3,4.135289E3,2.634489E2,3.719147E3,4.1614224E2,1.17102234E2,1.4634668E2,3.6582937E3,6.085334E1,2.9916446E2,1.1697779E2,4.6791115E1,1.4062223E1],"tree_param":{"num_deleted":"0","num_feature":"45","num_nodes":"13","size_leaf_vector":"1"}},{"base_weights":[2.0565496E-1,-5.338305E-2,7.4766475E-1],"categories":[],"categories_nodes":[],"categories_segments":[],"categories_sizes":[],"default_left":[0,0,0],"id":4,"left_children":[1,-1,-1],"loss_changes":[2.3694598E4,0E0,0E0],"parents":[2147483647,0,0],"right_children":[2,-1,-1],"split_conditions":[1.22E3,-5.338305E-2,7.4766475E-1],"split_indices":[22,0,0],"split_type":[0,0,0],"sum_hessian":[4.405085E3,3.9992715E3,4.0581335E2],"tree_param":{"num_deleted":"0","num_feature":"45","num_nodes":"3","size_leaf_vector":"1"}},{"base_weights":[-4.8657095E-1,-4.9243996E-1,5.729276E-1,-4.9786514E-1,5.618729E-1,-5.205526E-1,-2.7479345E-1,-5.2620107E-1,-4.579519E-2,5.948066E-1,-5.343507E-2,-5.3358246E-2,-4.6156088E-1,-3.095685E-2,-3.14256E-2,-5.3067368E-2,-4.360908E-2,-2.970297E-2,-1.7610824E-3],"categories":[],"categories_nodes":[],"categories_segments":[],"categories_sizes":[],"default_left":[0,0,0,0,0,0,0,0,0,0,0,0,0,0,0,0,0,0,0],"id":5,"left_children":[1,3,-1,5,-1,7,9,11,13,-1,-1,-1,15,-1,17,-1,-1,-1,-1],"loss_changes":[1.6356311E2,1.4877466E2,0E0,2.2124756E1,0E0,1.0682861E1,6.626705E2,1.6363525E0,1.7235836E-1,0E0,0E0,0E0,4.9344635E-1,0E0,1.6601756E-1,0E0,0E0,0E0,0E0],"parents":[2147483647,0,0,1,1,3,3,5,5,6,6,7,7,8,8,12,12,14,14],"right_children":[2,4,-1,6,-1,8,10,12,14,-1,-1,-1,16,-1,18,-1,-1,-1,-1],"split_conditions":[6.5535E4,7.647191E7,5.729276E-1,6.2E2,5.618729E-1,1E0,3.74E2,1E0,1E0,5.948066E-1,-5.343507E-2,-5.3358246E-2,4.802394E7,-3.095685E-2,1E0,-5.3067368E-2,-4.360908E-2,-2.970297E-2,-1.7610824E-3],"split_indices":[16,4,0,2,0,0,3,13,41,0,0,0,10,0,44,0,0,0,0],"split_type":[0,0,0,0,0,0,0,0,0,0,0,0,0,0,0,0,0,0,0],"sum_hessian":[4.4052095E3,4.4019736E3,3.235556E0,4.398987E3,2.986667E0,3.9916804E3,4.073067E2,3.9446404E3,4.7040005E1,1.5431112E1,3.9187558E2,3.533849E3,4.1079114E2,1.368889E0,4.5671116E1,1.0528001E2,3.0551114E2,1.2444446E0,4.442667E1],"tree_param":{"num_deleted":"0","num_feature":"45","num_nodes":"19","size_leaf_vector":"1"}},{"base_weights":[-4.6856332E-1,-4.8872504E-1,6.314179E-1,-3.165214E-1,-5.3555842E-2,-1.2851219E-1,-5.3447973E-2,-8.751613E-2,-5.2435692E-2,-5.0014753E-2,-7.333755E-2,-5.864636E-3,-4.9924355E-2],"categories":[],"categories_nodes":[],"categories_segments":[],"categories_sizes":[],"default_left":[0,0,0,0,0,0,0,0,0,0,0,0,0],"id":6,"left_children":[1,3,-1,5,-1,7,-1,9,-1,-1,11,-1,-1],"loss_changes":[6.029027E2,3.5107056E1,0E0,3.8356277E1,0E0,8.145252E0,0E0,2.6462684E0,0E0,0E0,2.752113E0,0E0,0E0],"parents":[2147483647,0,0,1,1,3,3,5,5,7,7,10,10],"right_children":[2,4,-1,6,-1,8,-1,10,-1,-1,12,-1,-1],"split_conditions":[1.5E1,8E1,6.314179E-1,2.37E2,-5.3555842E-2,1E0,-5.3447973E-2,1E0,-5.2435692E-2,-5.0014753E-2,3.96E2,-5.864636E-3,-4.9924355E-2],"split_indices":[21,16,0,3,0,0,0,41,0,0,2,0,0],"split_type":[0,0,0,0,0,0,0,0,0,0,0,0,0],"sum_hessian":[4.385174E3,4.3731025E3,1.2071112E1,9.366934E2,3.4364092E3,5.0375116E2,4.3294226E2,4.5758228E2,4.616889E1,1.4062223E1,4.4352005E2,4.2983115E2,1.368889E1],"tree_param":{"num_deleted":"0","num_feature":"45","num_nodes":"13","size_leaf_vector":"1"}},{"base_weights":[7.210721E-1,7.4885875E-1,-4.6592534E-1,-5.355701E-2,7.2759855E-1],"categories":[],"categories_nodes":[],"categories_segments":[],"categories_sizes":[],"default_left":[0,0,0,0,0],"id":7,"left_children":[1,-1,3,-1,-1],"loss_changes":[3.5378676E4,0E0,2.024499E3,0E0,0E0],"parents":[2147483647,0,0,2,2],"right_children":[2,-1,4,-1,-1],"split_conditions":[1E0,7.4885875E-1,1.6E1,-5.355701E-2,7.2759855E-1],"split_indices":[43,0,31,0,0],"split_type":[0,0,0,0,0],"sum_hessian":[4.40272E3,6.561956E2,3.7465247E3,3.7140447E3,3.2480003E1],"tree_param":{"num_deleted":"0","num_feature":"45","num_nodes":"5","size_leaf_vector":"1"}},{"base_weights":[-3.7007906E-2,8.3148134E-1,-4.826367E-1,1.2672055E0,3.169803E-2,-5.020241E-1,2.7658758E0,6.889376E-1,5.950387E0,-5.3424258E-2,1.2808279E0,-5.3551592E-2,-3.6191493E-2,-4.7756873E-2,5.709117E0,1.0780462E0,-5.331489E-2,6.8682563E-1,4.027357E0,6.2247963E0,-5.3130824E-2,6.4791286E-1,-2.8937772E-1,6.573311E-1,-2.8301885E-2,5.5193377E-1,6.7835546E0,7.1556824E-1,-5.0209206E-2,7.008843E0,-4.4012688E-2,3.0079088E-1,-5.3172477E-2,4.7851373E-2,5.40724E-1,7.2686934E-1,5.0103277E-1,1.5620542E-1,7.273855E-1,-5.2470542E-2,5.303959E-1],"categories":[],"categories_nodes":[],"categories_segments":[],"categories_sizes":[],"default_left":[0,0,0,0,0,0,0,0,0,0,0,0,0,0,0,0,0,0,0,0,0,0,0,0,0,0,0,0,0,0,0,0,0,0,0,0,0,0,0,0,0],"id":8,"left_children":[1,3,5,7,9,11,13,15,17,-1,19,-1,21,-1,23,25,-1,-1,27,29,-1,-1,31,-1,-1,33,35,-1,-1,37,-1,39,-1,-1,-1,-1,-1,-1,-1,-1,-1],"loss_changes":[1.7050348E3,5.205823E2,1.8475592E2,2.6148345E3,3.7387277E2,4.5148438E1,1.690856E2,4.1043243E2,1.5971338E2,0E0,1.4806105E3,0E0,3.2397003E2,0E0,4.9570404E1,1.9596467E3,0E0,0E0,5.238371E2,2.3461426E2,0E0,0E0,2.7179062E1,0E0,0E0,2.1128127E2,1.1010742E1,0E0,0E0,4.5946777E1,0E0,2.3254494E2,0E0,0E0,0E0,0E0,0E0,0E0,0E0,0E0,0E0],"parents":[2147483647,0,0,1,1,2,2,3,3,4,4,5,5,6,6,7,7,8,8,10,10,12,12,14,14,15,15,18,18,19,19,22,22,25,25,26,26,29,29,31,31],"right_children":[2,4,6,8,10,12,14,16,18,-1,20,-1,22,-1,24,26,-1,-1,28,30,-1,-1,32,-1,-1,34,36,-1,-1,38,-1,40,-1,-1,-1,-1,-1,-1,-1,-1,-1],"split_conditions":[1E0,3.16E2,3E0,2.22E2,1.441E3,2E0,2.47E2,1.03E2,2.86E2,-5.3424258E-2,1.838E3,-5.3551592E-2,1.02E2,-4.7756873E-2,2.63E2,2E0,-5.331489E-2,6.8682563E-1,1.838E3,1.982E3,-5.3130824E-2,6.4791286E-1,2.24E2,6.573311E-1,-2.8301885E-2,1E0,5.4323E4,7.1556824E-1,-5.0209206E-2,1.759E3,-4.4012688E-2,2.21E2,-5.3172477E-2,4.7851373E-2,5.40724E-1,7.2686934E-1,5.0103277E-1,1.5620542E-1,7.273855E-1,-5.2470542E-2,5.303959E-1],"split_indices":[41,9,41,9,9,41,19,9,9,0,16,0,19,0,19,9,0,0,16,9,0,0,19,0,0,12,16,0,0,9,0,19,0,0,0,0,0,0,0,0,0],"split_type":[0,0,0,0,0,0,0,0,0,0,0,0,0,0,0,0,0,0,0,0,0,0,0,0,0,0,0,0,0,0,0,0,0,0,0,0,0,0,0,0,0],"sum_hessian":[4.403467E3,1.4929601E3,2.9105068E3,9.660623E2,5.268978E2,2.8940803E3,1.6426668E1,8.6090674E2,1.0515556E2,3.630045E2,1.6389334E2,2.6998225E3,1.942578E2,8.213334E0,8.213334E0,6.530845E2,2.0782224E2,6.944E1,3.5715557E1,4.330667E1,1.2058668E2,6.3466673E0,1.8791113E2,7.0933337E0,1.1200001E0,5.989512E2,5.413334E1,2.0782225E1,1.4933334E1,3.8702225E1,4.604445E0,5.4631115E1,1.3328001E2,5.9111115E2,7.8400006E0,4.0071114E1,1.4062223E1,2.1155558E0,3.658667E1,4.7662228E1,6.968889E0],"tree_param":{"num_deleted":"0","num_feature":"45","num_nodes":"41","size_leaf_vector":"1"}},{"base_weights":[-2.0430682E-2,-2.0537576E-1,1.2257196E0,-2.506411E-1,3.318111E0,-5.054453E-1,2.9189136E0,-5.051199E-1,2.654829E-1,-2.970297E-2,3.4192517E0,-5.3324025E-2,-4.0727612E-1,7.439794E-1,-5.3244818E-2,-4.4976425E-1,-5.3538628E-2,2.6427774E0,-5.351419E-2,-2.8301885E-2,3.5149271E0,2.5769854E-1,-5.2743632E-2,-3.7062448E-1,-5.344783E-2,6.3934654E-1,-4.805492E-1,3.9656648E-1,2.805688E-1,2.077562E-2,-5.3425204E-2,1.0264799E-2,-5.3234335E-2],"categories":[],"categories_nodes":[],"categories_segments":[],"categories_sizes":[],"default_left":[0,0,0,0,0,0,0,0,0,0,0,0,0,0,0,0,0,0,0,0,0,0,0,0,0,0,0,0,0,0,0,0,0],"id":9,"left_children":[1,3,5,7,9,11,13,15,17,-1,19,-1,21,-1,-1,23,-1,25,-1,-1,27,-1,-1,29,-1,-1,31,-1,-1,-1,-1,-1,-1],"loss_changes":[1.0139984E3,6.118493E2,1.6681287E3,4.9705118E2,1.880841E1,5.522766E-1,4.491371E3,4.005188E0,2.3806584E3,0E0,1.7790955E1,0E0,2.5190252E1,0E0,0E0,5.8498383E0,0E0,3.694324E3,0E0,0E0,3.6740723E0,0E0,0E0,4.4558945E1,0E0,0E0,5.276016E0,0E0,0E0,0E0,0E0,0E0,0E0],"parents":[2147483647,0,0,1,1,2,2,3,3,4,4,5,5,6,6,7,7,8,8,10,10,12,12,15,15,17,17,20,20,23,23,26,26],"right_children":[2,4,6,8,10,12,14,16,18,-1,20,-1,22,-1,-1,24,-1,26,-1,-1,28,-1,-1,30,-1,-1,32,-1,-1,-1,-1,-1,-1],"split_conditions":[1E0,1E0,1.5881852E7,2E1,1E0,1E0,2E0,8E1,2.4E1,-2.970297E-2,1E0,-5.3324025E-2,1.838E3,7.439794E-1,-5.3244818E-2,2.37E2,-5.3538628E-2,1.1276E4,-5.351419E-2,-2.8301885E-2,2E0,2.5769854E-1,-5.2743632E-2,1.22E3,-5.344783E-2,6.3934654E-1,1.7797E4,3.9656648E-1,2.805688E-1,2.077562E-2,-5.3425204E-2,1.0264799E-2,-5.3234335E-2],"split_indices":[14,0,10,17,41,41,19,16,17,0,43,0,16,0,0,3,0,16,0,0,0,0,0,22,0,0,16,0,0,0,0,0,0],"split_type":[0,0,0,0,0,0,0,0,0,0,0,0,0,0,0,0,0,0,0,0,0,0,0,0,0,0,0,0,0,0,0,0,0],"sum_hessian":[4.397618E3,3.830027E3,5.675912E2,3.7823647E3,4.7662228E1,2.8099557E2,2.8659558E2,2.5333157E3,1.249049E3,1.2444446E0,4.641778E1,2.155378E2,6.545779E1,1.2357334E2,1.6302223E2,9.011023E2,1.6322135E3,3.140978E2,9.349512E2,1.1200001E0,4.5297783E1,1.7422223E0,6.371556E1,4.686578E2,4.324445E2,1.4224E2,1.7185779E2,2.4888891E1,2.040889E1,1.03288895E2,3.6536893E2,1.3937778E1,1.5792001E2],"tree_param":{"num_deleted":"0","num_feature":"45","num_nodes":"33","size_leaf_vector":"1"}},{"base_weights":[3.170059E-3,-1.669057E-1,1.9568756E0,-3.548604E-1,1.107441E0,3.8197336E0,-5.3218003E-2,-3.8692662E-1,1.9864222E0,4.212996E0,-5.3414375E-2,1.4997301E0,7.404945E-1,-5.3536307E-2,-2.7085888E-1,-3.095685E-2,2.0607944E-1,7.1881647E0,-5.2809555E-2,6.201047E0,-5.2957356E-2,-3.3013356E-1,1.4544212E0,-4.1284405E-2,7.430086E-1,7.2673374E-1,-4.4792425E-2,-3.4856483E-2,2.4496286E-1,-5.2000523E-2,3.513964E-1],"categories":[],"categories_nodes":[],"categories_segments":[],"categories_sizes":[],"default_left":[0,0,0,0,0,0,0,0,0,0,0,0,0,0,0,0,0,0,0,0,0,0,0,0,0,0,0,0,0,0,0],"id":10,"left_children":[1,3,5,7,9,11,-1,13,15,17,-1,19,-1,-1,21,-1,-1,23,-1,25,-1,27,29,-1,-1,-1,-1,-1,-1,-1,-1],"loss_changes":[1.460774E3,9.690575E2,1.6344396E3,2.6542267E2,2.6535215E3,1.6647454E3,0E0,5.978241E1,8.798676E0,2.5421052E3,0E0,1.1822655E3,0E0,0E0,2.0030995E2,0E0,0E0,2.0650879E2,0E0,2.679701E2,0E0,9.768425E1,2.6650574E2,0E0,0E0,0E0,0E0,0E0,0E0,0E0,0E0],"parents":[2147483647,0,0,1,1,2,2,3,3,4,4,5,5,7,7,8,8,9,9,11,11,14,14,17,17,19,19,21,21,22,22],"right_children":[2,4,6,8,10,12,-1,14,16,18,-1,20,-1,-1,22,-1,-1,24,-1,26,-1,28,30,-1,-1,-1,-1,-1,-1,-1,-1],"split_conditions":[5.0069E4,5.6266E4,2.0208384E9,1E0,1.371873E6,1.816788E9,-5.3218003E-2,1E0,1E0,2.4199985E9,-5.3414375E-2,1.032927E9,7.404945E-1,-5.3536307E-2,1E0,-3.095685E-2,2.0607944E-1,6.843E3,-5.2809555E-2,2E0,-5.2957356E-2,4.64E2,2.337E3,-4.1284405E-2,7.430086E-1,7.2673374E-1,-4.4792425E-2,-3.4856483E-2,2.4496286E-1,-5.2000523E-2,3.513964E-1],"split_indices":[20,9,10,0,9,10,0,42,44,10,0,10,0,0,14,0,0,16,0,9,0,19,16,0,0,0,0,0,0,0,0],"split_type":[0,0,0,0,0,0,0,0,0,0,0,0,0,0,0,0,0,0,0,0,0,0,0,0,0,0,0,0,0,0,0],"sum_hessian":[4.3942583E3,4.0432004E3,3.510578E2,3.5241426E3,5.190578E2,2.0048001E2,1.5057779E2,3.4773513E3,4.6791115E1,1.7895113E2,3.401067E2,1.2257779E2,7.790223E1,1.5243201E3,1.9530312E3,1.368889E0,4.5422226E1,1.0963557E2,6.931556E1,3.633778E1,8.6240005E1,1.8889424E3,6.40889E1,3.3600004E0,1.06275566E2,3.1235558E1,5.1022224E0,1.877369E3,1.1573335E1,3.3102226E1,3.098667E1],"tree_param":{"num_deleted":"0","num_feature":"45","num_nodes":"31","size_leaf_vector":"1"}},{"base_weights":[-6.966055E-3,8.694592E-1,-4.6686423E-1,1.451252E-1,2.0978293E0,-5.3551286E-2,4.024104E-1,5.1143E-1,-4.9649042E-1,4.6132207E0,7.471977E-2,2.8588906E-2,5.045338E0,8.313721E-1,-5.3195145E-2,-5.2818435E-1,6.9966674E-1,1.9297117E0,7.1001687E0,1.4577197E0,-5.3323884E-2,-5.088861E-1,1.1164219E0,6.2911606E-1,-3.9700806E-2,2.5151774E-1,1.401468E0,-3.7656903E-1,-5.3404965E-2,-4.574951E-2,2.7707005E0,-5.2735593E-2,4.6118474E0,7.399153E-1,-4.4419136E-2,-5.2450478E-2,3.3893232E0,-5.3138357E-2,-1.4669928E-1,6.375321E-1,-5.2511215E-2,4.189552E-2,-5.2278817E-2,2.1030621E-1,-5.2720726E-2,-4.9694434E-2,2.7817402E-2,4.3339586E-1,-2.8301885E-2,6.127368E-1,-4.979643E-2,4.8837206E-1,-4.9829245E-2,9.56848E-2,-4.6632122E-2],"categories":[],"categories_nodes":[],"categories_segments":[],"categories_sizes":[],"default_left":[0,0,0,0,0,0,0,0,0,0,0,0,0,0,0,0,0,0,0,0,0,0,0,0,0,0,0,0,0,0,0,0,0,0,0,0,0,0,0,0,0,0,0,0,0,0,0,0,0,0,0,0,0,0,0],"id":11,"left_children":[1,3,5,7,9,-1,11,13,15,17,19,21,23,25,-1,27,29,31,33,35,-1,37,39,-1,-1,41,43,45,-1,-1,47,-1,49,-1,-1,-1,51,-1,53,-1,-1,-1,-1,-1,-1,-1,-1,-1,-1,-1,-1,-1,-1,-1,-1],"loss_changes":[1.7632589E3,1.3392444E3,1.714259E2,2.2309392E2,2.841236E3,0E0,3.65317E2,2.020898E2,1.3452194E1,1.6473501E3,2.618422E2,1.15095856E2,1.0884125E2,1.5259982E2,0E0,9.8350525E-2,2.3645765E1,8.004308E2,2.9382422E2,3.6582684E2,0E0,9.9591446E-1,5.6523816E2,0E0,0E0,3.0115814E1,3.165123E2,1.394021E0,0E0,0E0,1.788168E1,0E0,4.521703E2,0E0,0E0,0E0,2.8297485E2,0E0,3.6520128E0,0E0,0E0,0E0,0E0,0E0,0E0,0E0,0E0,0E0,0E0,0E0,0E0,0E0,0E0,0E0,0E0],"parents":[2147483647,0,0,1,1,2,2,3,3,4,4,6,6,7,7,8,8,9,9,10,10,11,11,12,12,13,13,15,15,16,16,17,17,18,18,19,19,21,21,22,22,25,25,26,26,27,27,30,30,32,32,36,36,38,38],"right_children":[2,4,6,8,10,-1,12,14,16,18,20,22,24,26,-1,28,30,32,34,36,-1,38,40,-1,-1,42,44,46,-1,-1,48,-1,50,-1,-1,-1,52,-1,54,-1,-1,-1,-1,-1,-1,-1,-1,-1,-1,-1,-1,-1,-1,-1,-1],"split_conditions":[1E0,3.04E2,2E0,2E0,4.85E2,-5.3551286E-2,3.84E2,2E1,2.86E2,2.79E2,7.37E2,3.04E2,2E0,4E0,-5.3195145E-2,5E0,1.838E3,3.6614E4,4.5918E4,5.28E2,-5.3323884E-2,2.81E2,2E0,6.2911606E-1,-3.9700806E-2,1.838E3,4.5918E4,5.2762E4,-5.3404965E-2,-4.574951E-2,4.3878E4,-5.2735593E-2,4.5918E4,7.399153E-1,-4.4419136E-2,-5.2450478E-2,4.5918E4,-5.3138357E-2,3.031E3,6.375321E-1,-5.2511215E-2,4.189552E-2,-5.2278817E-2,2.1030621E-1,-5.2720726E-2,-4.9694434E-2,2.7817402E-2,4.3339586E-1,-2.8301885E-2,6.127368E-1,-4.979643E-2,4.8837206E-1,-4.9829245E-2,9.56848E-2,-4.6632122E-2],"split_indices":[41,9,41,9,9,0,19,17,9,20,9,19,9,17,0,9,16,16,16,9,0,19,9,0,0,16,16,11,0,0,16,0,16,0,0,0,16,0,9,0,0,0,0,0,0,0,0,0,0,0,0,0,0,0,0],"split_type":[0,0,0,0,0,0,0,0,0,0,0,0,0,0,0,0,0,0,0,0,0,0,0,0,0,0,0,0,0,0,0,0,0,0,0,0,0,0,0,0,0,0,0,0,0,0,0,0,0,0,0,0,0,0,0],"sum_hessian":[4.372605E3,1.5045334E3,2.8680713E3,9.471467E2,5.573867E2,2.6585068E3,2.0956447E2,6.030578E2,3.4408893E2,2.4789336E2,3.0949335E2,1.9488002E2,1.4684445E1,4.6168893E2,1.413689E2,3.3575113E2,8.337778E0,1.200889E2,1.2780446E2,9.408001E1,2.1541335E2,1.3079112E2,6.40889E1,1.1822224E1,2.8622224E0,2.2960002E2,2.3208891E2,1.4933334E1,3.208178E2,5.8488894E0,2.4888892E0,6.3093338E1,5.699556E1,1.2295112E2,4.853334E0,4.6791115E1,4.7288895E1,1.2270223E2,8.088889E0,1.4560001E1,4.9528893E1,1.8915558E2,4.0444447E1,1.7011557E2,6.197334E1,1.2817779E1,2.1155558E0,1.368889E0,1.1200001E0,4.3804447E1,1.31911125E1,3.3973335E1,1.3315557E1,1.368889E0,6.7200007E0],"tree_param":{"num_deleted":"0","num_feature":"45","num_nodes":"55","size_leaf_vector":"1"}},{"base_weights":[-2.8903915E-2,8.6661476E-1,-4.9613848E-1,1.7812368E0,-3.4429756E-1,-5.3551503E-2,1.9051488E-2,1.0039903E0,5.497861E0,-4.044739E-1,4.889946E0,2.3673537E0,-5.325256E-2,6.285808E-1,4.4868E0,6.46531E0,-5.108359E-2,-4.6581706E-1,4.5510316E0,6.2453526E-1,-3.2085564E-2,-5.139765E-2,6.7093056E-1,1.5436724E-1,1.5694406E0,6.6756325E0,-4.2190304E-1,6.860631E0,-4.6742212E-2,-4.792251E-1,5.134474E-1,6.2453526E-1,-3.5661217E-2,9.449999E-3,5.6557375E-1,1.6611041E-1,1.21221974E-1,3.2698712E-1,7.3104995E-1,-5.0994225E-2,4.812834E-2,5.848252E-1,7.4003893E-1,-5.2294225E-2,-2.8615419E-2,-4.6742212E-2,3.712871E-1],"categories":[],"categories_nodes":[],"categories_segments":[],"categories_sizes":[],"default_left":[0,0,0,0,0,0,0,0,0,0,0,0,0,0,0,0,0,0,0,0,0,0,0,0,0,0,0,0,0,0,0,0,0,0,0,0,0,0,0,0,0,0,0,0,0,0,0],"id":12,"left_children":[1,3,5,7,9,-1,11,13,15,17,19,21,-1,23,25,27,-1,29,31,-1,-1,-1,-1,33,35,37,39,41,-1,43,45,-1,-1,-1,-1,-1,-1,-1,-1,-1,-1,-1,-1,-1,-1,-1,-1],"loss_changes":[1.8427625E3,1.672994E3,5.8720764E1,2.4799846E3,2.069023E2,0E0,2.686792E2,9.291805E2,8.670796E2,1.9792633E2,5.4770493E1,4.9703314E2,0E0,2.8736987E2,7.4627637E2,3.5416846E2,0E0,8.611969E0,6.848947E1,0E0,0E0,0E0,0E0,1.4099173E2,5.0563354E0,7.969873E1,2.0170393E0,2.2956055E1,0E0,5.160034E0,3.0258385E1,0E0,0E0,0E0,0E0,0E0,0E0,0E0,0E0,0E0,0E0,0E0,0E0,0E0,0E0,0E0,0E0],"parents":[2147483647,0,0,1,1,2,2,3,3,4,4,6,6,7,7,8,8,9,9,10,10,11,11,13,13,14,14,15,15,17,17,18,18,23,23,24,24,25,25,26,26,27,27,29,29,30,30],"right_children":[2,4,6,8,10,-1,12,14,16,18,20,22,-1,24,26,28,-1,30,32,-1,-1,-1,-1,34,36,38,40,42,-1,44,46,-1,-1,-1,-1,-1,-1,-1,-1,-1,-1,-1,-1,-1,-1,-1,-1],"split_conditions":[1E0,2.22E2,2E0,1.08E2,3.7622E4,-5.3551503E-2,1.2E2,1E0,2.05E2,5.0069E4,2.545E3,1.07E2,-5.325256E-2,1E0,2.05E2,1E0,-5.108359E-2,1.44E3,3.031E3,6.2453526E-1,-3.2085564E-2,-5.139765E-2,6.7093056E-1,2.545E3,5.0869E4,1E0,8.73E2,2E0,-4.6742212E-2,1.982E3,3.3167E4,6.2453526E-1,-3.5661217E-2,9.449999E-3,5.6557375E-1,1.6611041E-1,1.21221974E-1,3.2698712E-1,7.3104995E-1,-5.0994225E-2,4.812834E-2,5.848252E-1,7.4003893E-1,-5.2294225E-2,-2.8615419E-2,-4.6742212E-2,3.712871E-1],"split_indices":[41,9,41,9,9,0,19,13,20,20,20,19,0,14,20,6,0,19,9,0,0,0,0,20,11,9,20,20,0,9,20,0,0,0,0,0,0,0,0,0,0,0,0,0,0,0,0],"split_type":[0,0,0,0,0,0,0,0,0,0,0,0,0,0,0,0,0,0,0,0,0,0,0,0,0,0,0,0,0,0,0,0,0,0,0,0,0,0,0,0,0,0,0,0,0,0,0],"sum_hessian":[4.402098E3,1.5090134E3,2.8930847E3,8.594134E2,6.4960004E2,2.687627E3,2.054578E2,7.1182227E2,1.4759113E2,6.4312897E2,6.471112E0,3.8453335E1,1.6700446E2,6.436267E2,6.8195564E1,1.27057785E2,2.0533335E1,6.3616003E2,6.968889E0,4.9777784E0,1.4933335E0,2.3644447E1,1.480889E1,4.2871115E2,2.1491557E2,4.6915558E1,2.1280003E1,1.2021334E2,6.844445E0,6.2807117E2,8.088889E0,4.9777784E0,1.9911113E0,4.2510226E2,3.608889E0,1.6812447E2,4.6791115E1,8.337778E0,3.857778E1,1.9786669E1,1.4933335E0,4.5920002E1,7.429334E1,5.1072003E2,1.1735112E2,6.844445E0,1.2444446E0],"tree_param":{"num_deleted":"0","num_feature":"45","num_nodes":"47","size_leaf_vector":"1"}},{"base_weights":[-1.3914468E-2,-4.255624E-1,6.0992846E0,-4.5019004E-1,6.488824E-1,-1.3949829E-3,7.3412027E0,-2.804155E-1,-5.3551383E-2,-4.9111396E-2,6.9714993E-1,5.0927246E-1,-3.488372E-1,7.466481E-1,2.3575451E0,-3.496271E-1,3.9420524E0,2.208835E-1,-4.9388692E-1,-3.9239E-2,4.1743118E-1,-4.351119E-1,3.9087468E-1,4.585764E0,-3.9239E-2,-4.254346E-2,6.991988E-1,-5.184282E-2,-3.0733642E-1,-4.1997537E-2,-5.1632088E-2,3.803245E-1,9.502591E-3,5.041551E-1,2.59318E-1,-3.095685E-2,1.05633795E-1,-4.4012688E-2,1.8867923E-2],"categories":[],"categories_nodes":[],"categories_segments":[],"categories_sizes":[],"default_left":[0,0,0,0,0,0,0,0,0,0,0,0,0,0,0,0,0,0,0,0,0,0,0,0,0,0,0,0,0,0,0,0,0,0,0,0,0,0,0],"id":13,"left_children":[1,3,5,7,9,11,13,15,-1,-1,-1,-1,17,-1,19,21,23,25,27,-1,-1,29,31,33,-1,-1,35,-1,37,-1,-1,-1,-1,-1,-1,-1,-1,-1,-1],"loss_changes":[1.1034703E4,1.0900159E2,2.0960186E3,5.8036743E1,6.699015E2,8.636261E1,1.2590527E2,3.9462805E2,0E0,0E0,0E0,0E0,3.8836212E0,0E0,3.709839E1,8.403464E1,6.2574707E1,3.376536E0,8.759499E-3,0E0,0E0,1.2437134E0,1.3859247E2,4.2223206E0,0E0,0E0,2.5254586E0,0E0,5.259559E-1,0E0,0E0,0E0,0E0,0E0,0E0,0E0,0E0,0E0,0E0],"parents":[2147483647,0,0,1,1,2,2,3,3,4,4,5,5,6,6,7,7,12,12,14,14,15,15,16,16,17,17,18,18,21,21,22,22,23,23,26,26,28,28],"right_children":[2,4,6,8,10,12,14,16,-1,-1,-1,-1,18,-1,20,22,24,26,28,-1,-1,30,32,34,-1,-1,36,-1,38,-1,-1,-1,-1,-1,-1,-1,-1,-1,-1],"split_conditions":[1E0,2E0,2.23E2,1E0,4.42E2,3.7E1,2.98E2,1.982E3,-5.3551383E-2,-4.9111396E-2,6.9714993E-1,5.0927246E-1,8.6E1,7.466481E-1,3.03E2,4.89E2,5.6266E4,3.8E1,5.4775E4,-3.9239E-2,4.1743118E-1,2E1,5.28E2,4.7928E4,-3.9239E-2,-4.254346E-2,8.295812E8,-5.184282E-2,3.3641574E9,-4.1997537E-2,-5.1632088E-2,3.803245E-1,9.502591E-3,5.041551E-1,2.59318E-1,-3.095685E-2,1.05633795E-1,-4.4012688E-2,1.8867923E-2],"split_indices":[6,41,9,41,9,6,6,9,0,0,0,0,6,0,6,9,9,6,11,0,0,17,9,11,0,0,10,0,10,0,0,0,0,0,0,0,0,0,0],"split_type":[0,0,0,0,0,0,0,0,0,0,0,0,0,0,0,0,0,0,0,0,0,0,0,0,0,0,0,0,0,0,0,0,0,0,0,0,0,0,0],"sum_hessian":[4.3829336E3,4.107289E3,2.7564447E2,4.0158225E3,9.1466675E1,4.6791115E1,2.2885335E2,1.3446223E3,2.6712002E3,7.827556E1,1.31911125E1,2.1155558E0,4.467556E1,2.2275557E2,6.0977783E0,1.3238401E3,2.0782225E1,8.960001E0,3.5715557E1,2.737778E0,3.3600004E0,1.1872001E3,1.3664001E2,1.8044445E1,2.737778E0,3.857778E0,5.1022224E0,2.9991114E1,5.724445E0,1.0058845E3,1.8131557E2,9.955557E0,1.26684456E2,1.34400015E1,4.604445E0,1.368889E0,3.7333336E0,4.604445E0,1.1200001E0],"tree_param":{"num_deleted":"0","num_feature":"45","num_nodes":"39","size_leaf_vector":"1"}},{"base_weights":[-1.6567709E-2,8.5010546E-1,-4.6533713E-1,3.814126E-1,4.7624636E0,-4.8345488E-1,6.51258E-1,1.0227292E0,-4.8586577E-1,5.30446E0,-5.0209206E-2,-5.3551555E-2,2.0451137E-1,1.529129E0,-2.254655E-1,-5.20613E-2,1.9632232E0,4.099593E0,7.153353E0,5.023642E0,-5.3271234E-2,6.7706007E-1,5.2495112E0,-5.0985235E-1,5.2888083E0,2.7623124E0,-3.5661217E-2,4.6951184E0,-4.8842683E-2,7.363038E-1,-3.2085564E-2,-4.7244094E-2,7.1210414E-1,6.2366825E-1,4.780265E-2,-5.167532E-2,7.347011E-1,-5.2811086E-2,-1.8871134E-2,6.4688855E-1,-3.488372E-2,4.3293715E-2,3.4860173E-1,5.620834E-1,2.6976138E-1],"categories":[],"categories_nodes":[],"categories_segments":[],"categories_sizes":[],"default_left":[0,0,0,0,0,0,0,0,0,0,0,0,0,0,0,0,0,0,0,0,0,0,0,0,0,0,0,0,0,0,0,0,0,0,0,0,0,0,0,0,0,0,0,0,0],"id":14,"left_children":[1,3,5,7,9,11,-1,13,15,17,-1,-1,19,21,23,-1,25,27,29,31,-1,33,35,37,39,41,-1,43,-1,-1,-1,-1,-1,-1,-1,-1,-1,-1,-1,-1,-1,-1,-1,-1,-1],"loss_changes":[1.7156796E3,2.757731E3,3.7057306E2,7.4858594E2,4.618025E2,1.0396454E2,0E0,4.892954E2,4.9736923E1,2.9586475E2,0E0,0E0,7.299851E2,1.7412963E3,3.5417252E2,0E0,1.6218826E1,2.5017786E2,9.0523926E1,3.1757776E2,0E0,4.938604E2,1.2425669E3,1.1554298E0,7.5970215E1,8.987564E0,0E0,1.3349841E2,0E0,0E0,0E0,0E0,0E0,0E0,0E0,0E0,0E0,0E0,0E0,0E0,0E0,0E0,0E0,0E0,0E0],"parents":[2147483647,0,0,1,1,2,2,3,3,4,4,5,5,7,7,8,8,9,9,12,12,13,13,14,14,16,16,17,17,18,18,19,19,21,21,22,22,23,23,24,24,25,25,27,27],"right_children":[2,4,6,8,10,12,-1,14,16,18,-1,-1,20,22,24,-1,26,28,30,32,-1,34,36,38,40,42,-1,44,-1,-1,-1,-1,-1,-1,-1,-1,-1,-1,-1,-1,-1,-1,-1,-1,-1],"split_conditions":[1E0,5.9051E4,4E0,3.3346E4,2.22E2,2E0,6.51258E-1,2.22E2,5.8759E4,2.05E2,-5.0209206E-2,-5.3551555E-2,1.07E2,4.33E2,3.647E3,-5.20613E-2,2.22E2,2E0,4.87E2,1.02E2,-5.3271234E-2,8E1,1.03E2,9.92E2,4.87E2,1.03E2,-3.5661217E-2,1.04E2,-4.8842683E-2,7.363038E-1,-3.2085564E-2,-4.7244094E-2,7.1210414E-1,6.2366825E-1,4.780265E-2,-5.167532E-2,7.347011E-1,-5.2811086E-2,-1.8871134E-2,6.4688855E-1,-3.488372E-2,4.3293715E-2,3.4860173E-1,5.620834E-1,2.6976138E-1],"split_indices":[41,16,41,16,9,41,0,20,16,20,0,0,19,9,16,0,9,20,20,19,0,16,20,20,20,9,0,9,0,0,0,0,0,0,0,0,0,0,0,0,0,0,0,0,0],"split_type":[0,0,0,0,0,0,0,0,0,0,0,0,0,0,0,0,0,0,0,0,0,0,0,0,0,0,0,0,0,0,0,0,0,0,0,0,0,0,0,0,0,0,0,0,0],"sum_hessian":[4.4091914E3,1.5039113E3,2.9052803E3,1.3440001E3,1.5991112E2,2.8986846E3,6.5955563E0,7.7255115E2,5.714489E2,1.4497778E2,1.4933334E1,2.694969E3,2.0371558E2,5.4942224E2,2.231289E2,5.6423114E2,7.217778E0,8.972445E1,5.5253338E1,2.625778E1,1.774578E2,4.4800003E2,1.0142223E2,2.130489E2,1.0080001E1,5.226667E0,1.9911113E0,7.939556E1,1.032889E1,5.3760006E1,1.4933335E0,7.466667E0,1.8791113E1,1.4435556E1,4.3356448E2,2.7253336E1,7.416889E1,2.009778E2,1.2071112E1,8.213334E0,1.8666668E0,1.617778E0,3.608889E0,5.3013336E1,2.6382225E1],"tree_param":{"num_deleted":"0","num_feature":"45","num_nodes":"45","size_leaf_vector":"1"}},{"base_weights":[-2.2223974E-2,-4.981417E-1,5.214641E-1,-5.1138014E-1,1.5237951E-1,2.3114753E0,1.08753525E-1,-4.74767E-1,-5.3267043E-2,-2.7947946E-2,1.6867806E-1,1.498345E0,3.8359675E-1,-4.8956707E-1,1.1121548E0,-4.2064953E-1,-5.316655E-2,9.71452E-3,2.4961457E-2,2.472893E0,-5.2885085E-2,-5.3240675E-2,-3.8770726E-1,3.1362185E0,-4.2167294E-1,-4.248981E-2,-5.3127717E-2,4.490417E-1,3.8316694E-1,-4.9252656E-1,1.2481672E-1,-5.1350202E-2,3.5322077E0,-5.1052296E-1,7.7279466E-1,-5.2338332E-2,4.0229756E-2,1.579387E-1,-5.227069E-2,-5.032769E-2,-9.836215E-3,-5.2106988E-2,1.4026186E-1,-4.742533E-2,3.6733085E-1,-5.311304E-2,-4.3902986E-2,-3.1711128E-2,5.215325E-1],"categories":[],"categories_nodes":[],"categories_segments":[],"categories_sizes":[],"default_left":[0,0,0,0,0,0,0,0,0,0,0,0,0,0,0,0,0,0,0,0,0,0,0,0,0,0,0,0,0,0,0,0,0,0,0,0,0,0,0,0,0,0,0,0,0,0,0,0,0],"id":15,"left_children":[1,3,5,7,9,11,13,15,-1,-1,17,19,-1,21,23,25,-1,-1,-1,27,-1,-1,29,31,33,35,-1,37,-1,39,41,-1,43,45,47,-1,-1,-1,-1,-1,-1,-1,-1,-1,-1,-1,-1,-1,-1],"loss_changes":[1.130783E3,2.014618E1,1.5067122E3,1.5275269E0,3.796997E-1,4.679668E2,9.9636475E2,2.390625E0,0E0,0E0,2.4295676E-1,4.9690778E2,0E0,4.330887E0,1.9258943E3,1.8381851E1,0E0,0E0,0E0,4.6465125E2,0E0,0E0,1.679721E1,3.8822803E2,3.791609E1,2.1740526E1,0E0,7.6897865E1,0E0,1.0472603E0,4.5043262E1,0E0,1.381665E2,2.5251007E-1,1.2210004E2,0E0,0E0,0E0,0E0,0E0,0E0,0E0,0E0,0E0,0E0,0E0,0E0,0E0,0E0],"parents":[2147483647,0,0,1,1,2,2,3,3,4,4,5,5,6,6,7,7,10,10,11,11,13,13,14,14,15,15,19,19,22,22,23,23,24,24,25,25,27,27,29,29,30,30,32,32,33,33,34,34],"right_children":[2,4,6,8,10,12,14,16,-1,-1,18,20,-1,22,24,26,-1,-1,-1,28,-1,-1,30,32,34,36,-1,38,-1,40,42,-1,44,46,48,-1,-1,-1,-1,-1,-1,-1,-1,-1,-1,-1,-1,-1,-1],"split_conditions":[4.321E3,1E0,4.531E3,8E1,1E0,2.1235636E9,2.5548465E9,2.37E2,-5.3267043E-2,-2.7947946E-2,2E0,1.4630981E9,3.8359675E-1,1E0,2.7124004E9,1.22E3,-5.316655E-2,9.71452E-3,2.4961457E-2,1.4188019E9,-5.2885085E-2,-5.3240675E-2,5.8386E4,1E0,1E0,1E0,-5.3127717E-2,1.5881852E7,3.8316694E-1,2.1387316E9,1.5912218E8,-5.1350202E-2,1E0,1E0,5.6716E4,-5.2338332E-2,4.0229756E-2,1.579387E-1,-5.227069E-2,-5.032769E-2,-9.836215E-3,-5.2106988E-2,1.4026186E-1,-4.742533E-2,3.6733085E-1,-5.311304E-2,-4.3902986E-2,-3.1711128E-2,5.215325E-1],"split_indices":[16,0,16,16,44,10,10,3,0,0,0,10,0,13,10,22,0,0,0,10,0,0,16,41,13,42,0,10,0,10,10,0,44,41,16,0,0,0,0,0,0,0,0,0,0,0,0,0,0],"split_type":[0,0,0,0,0,0,0,0,0,0,0,0,0,0,0,0,0,0,0,0,0,0,0,0,0,0,0,0,0,0,0,0,0,0,0,0,0,0,0,0,0,0,0,0,0,0,0,0,0],"sum_hessian":[4.3681587E3,2.3292937E3,2.0388649E3,2.2830464E3,4.6247208E1,3.8114774E2,1.6577172E3,8.4801245E2,1.4350339E3,1.0946628E0,4.5152546E1,2.4986052E2,1.3128722E2,1.0388004E3,6.1891675E2,4.3892966E2,4.0908276E2,2.513666E1,2.0015886E1,1.6859216E2,8.126835E1,7.282781E2,3.1052237E2,2.6636826E2,3.525485E2,9.9656555E1,3.392731E2,6.825665E1,1.0033551E2,2.5783087E2,5.2691494E1,2.6042765E1,2.4032549E2,3.2867288E2,2.3875608E1,4.7799824E1,5.1856735E1,3.1264383E1,3.699227E1,2.5071611E2,7.1147695E0,3.5393475E1,1.729802E1,8.095573E0,2.322299E2,2.5014189E2,7.8531006E1,1.9917723E1,3.9578853E0],"tree_param":{"num_deleted":"0","num_feature":"45","num_nodes":"49","size_leaf_vector":"1"}},{"base_weights":[6.186423E-3,8.8281167E-1,-5.3274382E-2,1.6102861E0,2.9901427E-1,9.122101E-1,3.6400251E0,-4.994645E-2,9.443745E-1,2.3330797E-2,1.8215885E0,3.6871916E-1,-7.938495E-2,-5.1640636E-1,1.9849363E-1,2.3298047E0,-5.297788E-2,1.9779168E-1,-2.42872E-1,2.3584338E-1,-5.361252E-2,-2.9666787E-2,1.9000217E-2,-5.3054925E-2,-1.6426998E-1,-2.9410416E-1,9.0368897E-1,1.8962084E0,3.8528925E-1,-4.2538773E-2,2.949979E-2,-1.0330098E-2,-5.1835176E-2,-4.7152843E-2,1.2029221E-1,1.522754E-1,-3.949337E-2,4.4200998E-2,3.7273028E-1,2.2169355E-1,-3.3676475E-2],"categories":[],"categories_nodes":[],"categories_segments":[],"categories_sizes":[],"default_left":[0,0,0,0,0,0,0,0,0,0,0,0,0,0,0,0,0,0,0,0,0,0,0,0,0,0,0,0,0,0,0,0,0,0,0,0,0,0,0,0,0],"id":16,"left_children":[1,3,-1,5,7,9,11,13,15,17,19,-1,21,23,25,27,-1,29,31,-1,-1,-1,-1,-1,33,35,37,39,-1,-1,-1,-1,-1,-1,-1,-1,-1,-1,-1,-1,-1],"loss_changes":[2.0615098E3,7.05062E2,0E0,1.0443441E3,2.0788565E2,4.4576163E2,3.3428955E1,6.9628426E1,6.628286E2,1.3047775E1,3.463025E2,0E0,2.5211573E-1,9.5256424E-1,1.3649881E2,1.0310089E2,0E0,1.0402094E1,4.224596E0,0E0,0E0,0E0,0E0,0E0,4.5619826E0,4.3037323E1,2.0892285E2,9.535538E1,0E0,0E0,0E0,0E0,0E0,0E0,0E0,0E0,0E0,0E0,0E0,0E0,0E0],"parents":[2147483647,0,0,1,1,3,3,4,4,5,5,6,6,7,7,8,8,9,9,10,10,12,12,13,13,14,14,15,15,17,17,18,18,24,24,25,25,26,26,27,27],"right_children":[2,4,-1,6,8,10,12,14,16,18,20,-1,22,24,26,28,-1,30,32,-1,-1,-1,-1,-1,34,36,38,40,-1,-1,-1,-1,-1,-1,-1,-1,-1,-1,-1,-1,-1],"split_conditions":[1E0,2E0,-5.3274382E-2,2.4E1,4.86E2,1E0,1.838E3,3.2892E4,1.441E3,4.242E4,1.838E3,3.6871916E-1,4.6427E4,3.647E3,2.62E2,5.5703E4,-5.297788E-2,3.679E3,2E1,2.3584338E-1,-5.361252E-2,-2.9666787E-2,1.9000217E-2,-5.3054925E-2,1.5E2,8.7E1,5.4707E4,4.7924E4,3.8528925E-1,-4.2538773E-2,2.949979E-2,-1.0330098E-2,-5.1835176E-2,-4.7152843E-2,1.2029221E-1,1.522754E-1,-3.949337E-2,4.4200998E-2,3.7273028E-1,2.2169355E-1,-3.3676475E-2],"split_indices":[41,9,0,17,9,14,16,16,9,16,16,0,11,16,9,16,0,11,17,0,0,0,0,0,9,9,16,16,0,0,0,0,0,0,0,0,0,0,0,0,0],"split_type":[0,0,0,0,0,0,0,0,0,0,0,0,0,0,0,0,0,0,0,0,0,0,0,0,0,0,0,0,0,0,0,0,0,0,0,0,0,0,0,0,0],"sum_hessian":[4.361544E3,1.6602839E3,2.70126E3,7.383998E2,9.218841E2,5.5051416E2,1.8788564E2,5.9894415E2,3.229399E2,2.789135E2,2.7160065E2,1.8554141E2,2.3442235E0,2.0776862E2,3.9117557E2,1.661806E2,1.5675932E2,1.6864555E2,1.1026797E2,2.2122745E2,5.0373207E1,1.2415453E0,1.1026783E0,1.992591E2,8.509519E0,2.3064607E2,1.605295E2,1.311029E2,3.5077705E1,2.2300858E1,1.463447E2,7.4100266E1,3.61677E1,7.482939E0,1.02658E0,1.1385594E1,2.1926048E2,1.3896445E2,2.156504E1,1.1464357E2,1.645933E1],"tree_param":{"num_deleted":"0","num_feature":"45","num_nodes":"41","size_leaf_vector":"1"}},{"base_weights":[1.6514257E-1,-5.288892E-1,3.560658E0,-5.3290576E-2,-9.713104E-2,3.5785452E-1,3.6406666E-1,3.2839265E-1,-1.8454774E-1,4.9530762E-1,-3.863774E-2,1.2517782E-1,6.985529E-2,-3.411754E-1,5.377061E-2,-2.9128993E-2,5.7348907E-1,3.0657402E-1,-2.8573323E-2,-1.989863E-1,-4.7288623E-2,5.1979643E-1,-3.3220583E-1,1.1869977E-1,3.1138095E-1,3.7308706E-3,4.719077E-2,-4.7216836E-2,6.718988E-2,1.7752048E-2,1.04691915E-1,-4.1306727E-2,-1.6749335E-2,-3.0347181E-2,4.1036453E-2],"categories":[],"categories_nodes":[],"categories_segments":[],"categories_sizes":[],"default_left":[0,0,0,0,0,0,0,0,0,0,0,0,0,0,0,0,0,0,0,0,0,0,0,0,0,0,0,0,0,0,0,0,0,0,0],"id":17,"left_children":[1,3,5,-1,7,9,-1,11,13,15,-1,17,-1,19,21,-1,23,25,-1,27,-1,29,31,-1,33,-1,-1,-1,-1,-1,-1,-1,-1,-1,-1],"loss_changes":[1.0539709E4,6.3883057E0,1.9319336E2,0E0,1.3793235E0,2.1971583E0,0E0,3.9409214E-1,1.140027E0,1.2118239E0,0E0,4.8645106E-1,0E0,2.48039E-1,2.4716723E0,0E0,2.1694856E0,1.6913411E-1,0E0,2.8180404E0,0E0,9.2915905E-1,3.2051325E-2,0E0,8.803525E-1,0E0,0E0,0E0,0E0,0E0,0E0,0E0,0E0,0E0,0E0],"parents":[2147483647,0,0,1,1,2,2,4,4,5,5,7,7,8,8,9,9,11,11,13,13,14,14,16,16,17,17,19,19,21,21,22,22,24,24],"right_children":[2,4,6,-1,8,10,-1,12,14,16,-1,18,-1,20,22,-1,24,26,-1,28,-1,30,32,-1,34,-1,-1,-1,-1,-1,-1,-1,-1,-1,-1],"split_conditions":[3.96E2,6.038E3,3.74E2,-5.3290576E-2,1.4778E4,7.647191E7,3.6406666E-1,1.3408E4,4.4774E4,4.373E3,-3.863774E-2,1.1288E4,6.985529E-2,3.2531E4,5.2426E4,-2.9128993E-2,2.3291E4,9.392E3,-2.8573323E-2,2.9433E4,-4.7288623E-2,5.1257E4,6.0276E4,1.1869977E-1,2.7801E4,3.7308706E-3,4.719077E-2,-4.7216836E-2,6.718988E-2,1.7752048E-2,1.04691915E-1,-4.1306727E-2,-1.6749335E-2,-3.0347181E-2,4.1036453E-2],"split_indices":[2,3,3,0,3,4,0,3,3,2,0,3,0,3,3,0,2,3,0,3,0,3,3,0,2,0,0,0,0,0,0,0,0,0,0],"split_type":[0,0,0,0,0,0,0,0,0,0,0,0,0,0,0,0,0,0,0,0,0,0,0,0,0,0,0,0,0,0,0,0,0,0,0],"sum_hessian":[4.470631E3,3.7126267E3,7.58004E2,3.6781753E3,3.445147E1,1.8607443E1,7.393966E2,5.4015203E0,2.904995E1,1.5988904E1,2.6185393E0,4.3510194E0,1.050501E0,1.726889E1,1.178106E1,1.1990664E0,1.4789837E1,3.1946578E0,1.1563616E0,9.511492E0,7.7573986E0,5.1800237E0,6.6010365E0,3.370935E0,1.1418902E1,1.6816121E0,1.5130457E0,7.588832E0,1.92266E0,3.9511805E0,1.228843E0,3.4161546E0,3.1848822E0,1.2969296E0,1.0121973E1],"tree_param":{"num_deleted":"0","num_feature":"45","num_nodes":"35","size_leaf_vector":"1"}},{"base_weights":[-2.5106203E-2,-2.9488522E-1,2.3410425E0,-5.282843E-1,1.324881E0,-5.1289704E-2,2.5153382E0,-5.325942E-2,5.862356E-1,-5.313908E-2,3.686633E-1,2.5297952E-1,1.0644848E0,1.8943472E0,-4.6949994E-2,1.3507225E-2,1.2920646E-1,6.294557E-2,2.3376583E-1],"categories":[],"categories_nodes":[],"categories_segments":[],"categories_sizes":[],"default_left":[0,0,0,0,0,0,0,0,0,0,0,0,0,0,0,0,0,0,0],"id":18,"left_children":[1,3,5,7,9,-1,11,-1,13,-1,-1,-1,15,17,-1,-1,-1,-1,-1],"loss_changes":[2.8023882E3,1.4905037E3,2.2479443E2,1.6860657E1,2.1791064E3,0E0,6.192383E0,0E0,1.9874363E1,0E0,0E0,0E0,1.0746856E0,2.0826893E0,0E0,0E0,0E0,0E0,0E0],"parents":[2147483647,0,0,1,1,2,2,3,3,4,4,6,6,8,8,12,12,13,13],"right_children":[2,4,6,8,10,-1,12,-1,14,-1,-1,-1,16,18,-1,-1,-1,-1,-1],"split_conditions":[3.320172E7,1E0,1E0,2.373441E6,2E0,-5.1289704E-2,6.4445E4,-5.325942E-2,3.3287118E7,-5.313908E-2,3.686633E-1,2.5297952E-1,5.318072E8,1.5881852E7,-4.6949994E-2,1.3507225E-2,1.2920646E-1,6.294557E-2,2.3376583E-1],"split_indices":[9,13,14,9,9,0,11,0,10,0,0,0,9,10,0,0,0,0,0],"split_type":[0,0,0,0,0,0,0,0,0,0,0,0,0,0,0,0,0,0,0],"sum_hessian":[4.3880557E3,3.9397378E3,4.483181E2,3.4441318E3,4.95606E2,2.5691988E1,4.2262613E2,3.4313848E3,1.2747064E1,2.779332E2,2.1767279E2,4.1772015E2,4.905987E0,5.3382964E0,7.408767E0,1.2784489E0,3.627538E0,2.0133984E0,3.3248978E0],"tree_param":{"num_deleted":"0","num_feature":"45","num_nodes":"19","size_leaf_vector":"1"}},{"base_weights":[1.8301775E-1,-5.3104777E-2,3.6486268E-1],"categories":[],"categories_nodes":[],"categories_segments":[],"categories_sizes":[],"default_left":[0,0,0],"id":19,"left_children":[1,-1,-1],"loss_changes":[1.1130222E4,0E0,0E0],"parents":[2147483647,0,0],"right_children":[2,-1,-1],"split_conditions":[1.22E3,-5.3104777E-2,3.6486268E-1],"split_indices":[22,0,0],"split_type":[0,0,0],"sum_hessian":[4.4958726E3,3.728489E3,7.673834E2],"tree_param":{"num_deleted":"0","num_feature":"45","num_nodes":"3","size_leaf_vector":"1"}},{"base_weights":[-4.8297507E-1,-4.9014837E-1,3.7565562E-1,-4.947007E-1,3.4332725E-1,-5.17128E-1,-2.765359E-1,-5.22609E-1,-7.6540105E-2,-3.45874E-1,-2.3320991E-1,-5.3076394E-2,-4.5230943E-1,-2.7390897E-2,-6.603009E-2,-2.6570016E-1,-4.5761965E-2,-5.886664E-2,-2.7212957E-1,-4.2070698E-2,-5.2793395E-2,-2.711084E-2,-5.524605E-3,-2.829226E-2,3.296184E-2,-8.136009E-3,2.6640136E-2,-2.6002383E-2,-4.1874155E-2],"categories":[],"categories_nodes":[],"categories_segments":[],"categories_sizes":[],"default_left":[0,0,0,0,0,0,0,0,0,0,0,0,0,0,0,0,0,0,0,0,0,0,0,0,0,0,0,0,0],"id":20,"left_children":[1,3,-1,5,-1,7,9,11,13,15,17,-1,19,-1,21,23,-1,25,27,-1,-1,-1,-1,-1,-1,-1,-1,-1,-1],"loss_changes":[1.2711255E2,7.516168E1,0E0,1.996289E1,0E0,8.955444E0,1.0765362E0,1.8690796E0,7.928845E-2,1.1869946E0,1.61341E0,0E0,7.080231E-1,0E0,8.650395E-2,9.8965883E-1,0E0,3.5164654E-1,2.3905563E-1,0E0,0E0,0E0,0E0,0E0,0E0,0E0,0E0,0E0,0E0],"parents":[2147483647,0,0,1,1,3,3,5,5,6,6,7,7,8,8,9,9,10,10,12,12,14,14,15,15,17,17,18,18],"right_children":[2,4,-1,6,-1,8,10,12,14,16,18,-1,20,-1,22,24,-1,26,28,-1,-1,-1,-1,-1,-1,-1,-1,-1,-1],"split_conditions":[6.5535E4,7.647191E7,3.7565562E-1,8.85E2,3.4332725E-1,1E0,2.4838E4,1E0,1E0,1.4818E4,3.2211E4,-5.3076394E-2,2E0,-2.7390897E-2,1E0,1.4532E4,-4.5761965E-2,3.19E4,6.3674E4,-4.2070698E-2,-5.2793395E-2,-2.711084E-2,-5.524605E-3,-2.829226E-2,3.296184E-2,-8.136009E-3,2.6640136E-2,-2.6002383E-2,-4.1874155E-2],"split_indices":[16,4,0,2,0,0,2,13,43,2,2,0,9,0,41,2,0,2,2,0,0,0,0,0,0,0,0,0,0],"split_type":[0,0,0,0,0,0,0,0,0,0,0,0,0,0,0,0,0,0,0,0,0,0,0,0,0,0,0,0,0],"sum_hessian":[4.118205E3,4.1121313E3,6.0733657E0,4.108239E3,3.8928502E0,3.7240378E3,3.842009E2,3.6780955E3,4.5942303E1,1.4506252E2,2.391384E2,3.2899082E3,3.881873E2,1.0556867E0,4.4886616E1,8.6429726E1,5.863279E1,4.4100353E1,1.9503804E2,2.7840765E2,1.0977964E2,1.036471E0,4.3850147E1,8.4509636E1,1.9200903E0,4.194928E1,2.1510751E0,1.8272409E2,1.2313948E1],"tree_param":{"num_deleted":"0","num_feature":"45","num_nodes":"29","size_leaf_vector":"1"}},{"base_weights":[-4.6192348E-1,-4.8160776E-1,3.836002E-1,-2.9639533E-1,-5.328827E-2,4.4645476E0,-5.3314693E-2,-4.9749292E-2,6.95892E-1],"categories":[],"categories_nodes":[],"categories_segments":[],"categories_sizes":[],"default_left":[0,0,0,0,0,0,0,0,0],"id":21,"left_children":[1,3,-1,5,-1,7,-1,-1,-1],"loss_changes":[3.517168E2,3.894513E1,0E0,1.01120105E3,0E0,5.2955707E2,0E0,0E0,0E0],"parents":[2147483647,0,0,1,1,3,3,5,5],"right_children":[2,4,-1,6,-1,8,-1,-1,-1],"split_conditions":[5.353E3,8E1,3.836002E-1,1E0,-5.328827E-2,1E0,-5.3314693E-2,-4.9749292E-2,6.95892E-1],"split_indices":[19,16,0,42,0,41,0,0,0],"split_type":[0,0,0,0,0,0,0,0,0],"sum_hessian":[4.1344917E3,4.116526E3,1.7965548E1,8.9401044E2,3.2225156E3,4.150526E1,8.525052E2,1.4152442E1,2.735282E1],"tree_param":{"num_deleted":"0","num_feature":"45","num_nodes":"9","size_leaf_vector":"1"}},{"base_weights":[6.014375E-1,3.643466E-1,-4.609254E-1,-5.3292226E-2,3.5834205E-1],"categories":[],"categories_nodes":[],"categories_segments":[],"categories_sizes":[],"default_left":[0,0,0,0,0],"id":22,"left_children":[1,-1,3,-1,-1],"loss_changes":[1.5450441E4,0E0,1.0338221E3,0E0,0E0],"parents":[2147483647,0,0,2,2],"right_children":[2,-1,4,-1,-1],"split_conditions":[1E0,3.643466E-1,1E0,-5.3292226E-2,3.5834205E-1],"split_indices":[44,0,29,0,0],"split_type":[0,0,0,0,0],"sum_hessian":[4.7793267E3,1.2364314E3,3.5428953E3,3.4817812E3,6.111396E1],"tree_param":{"num_deleted":"0","num_feature":"45","num_nodes":"5","size_leaf_vector":"1"}},{"base_weights":[-2.0432364E-2,7.405097E-1,-4.7980544E-1,1.0842193E0,3.4599278E-2,-4.992685E-1,2.0584044E0,6.5658486E-1,3.2311156E0,-5.3153303E-2,1.0309477E0,-5.327289E-2,-5.8856178E-2,-4.7039557E-2,3.5078442E-1,4.9863672E-1,3.388077E0,3.711823E-1,2.750814E0,3.4495015E0,-5.2877363E-2,3.6531177E-1,-3.0984503E-1,8.474312E-1,-5.0587153E-1,-4.4466347E-2,3.806657E-1,3.0151305E0,-4.7530662E-2,3.699195E-1,-4.3728378E-2,1.8136622E-1,-5.2861344E-2,1.09585635E-1,-5.3014386E-2,-3.0135313E-2,-5.3188752E-2,1.22644775E-1,3.7271306E-1,-5.2143484E-2,2.96689E-1],"categories":[],"categories_nodes":[],"categories_segments":[],"categories_sizes":[],"default_left":[0,0,0,0,0,0,0,0,0,0,0,0,0,0,0,0,0,0,0,0,0,0,0,0,0,0,0,0,0,0,0,0,0,0,0,0,0,0,0,0,0],"id":23,"left_children":[1,3,5,7,9,11,13,15,17,-1,19,-1,21,-1,-1,23,25,-1,27,29,-1,-1,31,33,35,-1,-1,37,-1,-1,-1,39,-1,-1,-1,-1,-1,-1,-1,-1,-1],"loss_changes":[1.5225319E3,3.9778278E2,1.3520001E2,1.01023596E3,3.0398538E2,3.9699524E1,7.811949E1,3.955661E2,3.20188E1,0E0,7.3837573E2,0E0,1.7954337E2,0E0,0E0,3.058149E2,8.2166016E1,0E0,8.274164E1,7.604022E1,0E0,0E0,1.9470242E1,2.221181E2,1.0383339E0,0E0,0E0,1.07841675E2,0E0,0E0,0E0,1.1176045E2,0E0,0E0,0E0,0E0,0E0,0E0,0E0,0E0,0E0],"parents":[2147483647,0,0,1,1,2,2,3,3,4,4,5,5,6,6,7,7,8,8,10,10,12,12,15,15,16,16,18,18,19,19,22,22,23,23,24,24,27,27,31,31],"right_children":[2,4,6,8,10,12,14,16,18,-1,20,-1,22,-1,-1,24,26,-1,28,30,-1,-1,32,34,36,-1,-1,38,-1,-1,-1,40,-1,-1,-1,-1,-1,-1,-1,-1,-1],"split_conditions":[1E0,3.16E2,3E0,2.22E2,1.441E3,2E0,3.7E1,1.265E3,2.62E2,-5.3153303E-2,2.61E2,-5.327289E-2,1.02E2,-4.7039557E-2,3.5078442E-1,5E0,2E0,3.711823E-1,3.09E2,1.838E3,-5.2877363E-2,3.6531177E-1,2.24E2,2E1,1E0,-4.4466347E-2,3.806657E-1,2E0,-4.7530662E-2,3.699195E-1,-4.3728378E-2,2.21E2,-5.2861344E-2,1.09585635E-1,-5.3014386E-2,-3.0135313E-2,-5.3188752E-2,1.22644775E-1,3.7271306E-1,-5.2143484E-2,2.96689E-1],"split_indices":[41,9,41,9,9,41,6,20,9,0,20,0,19,0,0,20,9,0,20,16,0,0,19,17,9,0,0,20,0,0,0,19,0,0,0,0,0,0,0,0,0],"split_type":[0,0,0,0,0,0,0,0,0,0,0,0,0,0,0,0,0,0,0,0,0,0,0,0,0,0,0,0,0,0,0,0,0,0,0,0,0,0,0,0,0],"sum_hessian":[4.3535967E3,1.6386292E3,2.7149675E3,1.1016816E3,5.369476E2,2.6951047E3,1.986282E1,9.197791E2,1.819025E2,3.426933E2,1.9425427E2,2.504607E3,1.9049765E2,7.4829593E0,1.2379861E1,8.706183E2,4.9160816E1,8.755021E1,9.435229E1,7.568424E1,1.1857003E2,1.1206429E1,1.7929123E2,6.463449E2,2.2427338E2,4.8341775E0,4.432664E1,8.726782E1,7.0844665E0,7.1161E1,4.5232396E0,5.5298283E1,1.23992935E2,5.477677E2,9.857725E1,2.6729445E1,1.9754393E2,2.5622257E1,6.164556E1,4.4806255E1,1.0492028E1],"tree_param":{"num_deleted":"0","num_feature":"45","num_nodes":"41","size_leaf_vector":"1"}},{"base_weights":[-1.06973685E-2,-2.0279898E-1,1.8513429E0,-4.488124E-1,1.4839637E0,-5.1164906E-2,2.000788E0,-5.0273705E-1,2.4008508E0,3.2572684E0,-5.017419E-1,1.4825989E0,2.017719E-1,-5.0760514E-1,7.265779E-1,-2.881189E-2,2.4552369E-1,3.7728603E0,-5.482725E-2,-8.319266E-3,-5.307265E-2,1.7622199E0,9.950215E-1,-4.3473315E-1,-5.3207543E-2,2.0824254E-1,-4.676291E-2,-4.877804E-2,3.9743647E-1,2.3895526E-1,-4.929057E-2,1.9274022E-1,5.1412087E-2,3.1063212E-2,1.1647806E0,-3.5641667E-2,-5.3150076E-2,6.1456986E-2,1.4708184E-1],"categories":[],"categories_nodes":[],"categories_segments":[],"categories_sizes":[],"default_left":[0,0,0,0,0,0,0,0,0,0,0,0,0,0,0,0,0,0,0,0,0,0,0,0,0,0,0,0,0,0,0,0,0,0,0,0,0,0,0],"id":24,"left_children":[1,3,5,7,9,-1,11,13,15,17,19,21,-1,23,25,-1,-1,27,-1,29,-1,31,33,35,-1,-1,-1,-1,-1,-1,-1,-1,-1,-1,37,-1,-1,-1,-1],"loss_changes":[1.566895E3,1.648395E3,1.4568933E2,5.338332E2,1.7821589E3,0E0,3.9074707E-1,2.073114E1,1.0146545E1,5.2642944E2,3.4194794E0,4.2351532E-1,0E0,5.8132324E0,2.3370476E1,0E0,0E0,2.0411035E2,0E0,1.7792696E1,0E0,8.338108E-1,5.8118343E-1,6.3098145E0,0E0,0E0,0E0,0E0,0E0,0E0,0E0,0E0,0E0,0E0,1.2993336E-1,0E0,0E0,0E0,0E0],"parents":[2147483647,0,0,1,1,2,2,3,3,4,4,6,6,7,7,8,8,9,9,10,10,11,11,13,13,14,14,17,17,19,19,21,21,22,22,23,23,34,34],"right_children":[2,4,6,8,10,-1,12,14,16,18,20,22,-1,24,26,-1,-1,28,-1,30,-1,32,34,36,-1,-1,-1,-1,-1,-1,-1,-1,-1,-1,38,-1,-1,-1,-1],"split_conditions":[3.320172E7,1E0,1E0,1E0,1.1276E4,-5.1164906E-2,3.14E3,2.373441E6,1E0,2E0,1.7797E4,1.564E3,2.017719E-1,8E1,3.3287118E7,-2.881189E-2,2.4552369E-1,1E0,-5.482725E-2,2E0,-5.307265E-2,1.4315283E9,2.11E3,3.96E2,-5.3207543E-2,2.0824254E-1,-4.676291E-2,-4.877804E-2,3.9743647E-1,2.3895526E-1,-4.929057E-2,1.9274022E-1,5.1412087E-2,3.1063212E-2,1.2427503E9,-3.5641667E-2,-5.3150076E-2,6.1456986E-2,1.4708184E-1],"split_indices":[9,13,14,0,16,0,11,9,43,9,16,11,0,16,10,0,0,9,0,9,0,9,11,2,0,0,0,0,0,0,0,0,0,0,9,0,0,0,0],"split_type":[0,0,0,0,0,0,0,0,0,0,0,0,0,0,0,0,0,0,0,0,0,0,0,0,0,0,0,0,0,0,0,0,0,0,0,0,0,0,0],"sum_hessian":[4.378412E3,3.9697544E3,4.0865762E2,3.4651045E3,5.046497E2,2.4163664E1,3.8449396E2,3.4015598E3,6.3544712E1,2.6624405E2,2.3840562E2,1.4967518E1,3.6952643E2,3.3887275E3,1.2832258E1,1.1745503E0,6.237016E1,2.3448373E2,3.1760332E1,1.3298808E1,2.2510681E2,7.8508773E0,7.116641E0,8.5658966E2,2.532138E3,5.661116E0,7.1711426E0,1.0524798E1,2.2395894E2,1.5748558E0,1.1723952E1,6.4526215E0,1.398256E0,1.9768289E0,5.139812E0,4.760188E2,3.805709E2,2.91222E0,2.227592E0],"tree_param":{"num_deleted":"0","num_feature":"45","num_nodes":"39","size_leaf_vector":"1"}},{"base_weights":[3.3221666E-3,-1.3826977E-1,1.225363E0,-3.2301784E-1,8.1857747E-1,3.7137994E-1,-5.202971E-2,-3.5637966E-1,1.5848366E0,2.4278297E0,-5.313298E-2,-3.883845E-1,3.7747848E-1,-3.3177678E-2,1.6457757E0,3.302423E0,-5.2500438E-2,-5.328208E-2,-2.9087287E-1,2.2915108E0,-5.170197E-2,-3.1166423E-2,1.7028928E0,-4.875303E-2,3.4963841E0,-3.515057E-2,1.1869436E-1,2.9995802E-1,-4.7875468E-2,1.4225167E-1,2.0323057E-1,3.6088836E-1,-4.548407E-2],"categories":[],"categories_nodes":[],"categories_segments":[],"categories_sizes":[],"default_left":[0,0,0,0,0,0,0,0,0,0,0,0,0,0,0,0,0,0,0,0,0,0,0,0,0,0,0,0,0,0,0,0,0],"id":25,"left_children":[1,3,5,7,9,-1,-1,11,13,15,-1,17,19,-1,21,23,-1,-1,25,27,-1,-1,29,-1,31,-1,-1,-1,-1,-1,-1,-1,-1],"loss_changes":[7.5636554E2,6.927658E2,1.9736035E3,2.095994E2,1.3790947E3,0E0,0E0,7.597513E1,7.1596375E0,7.4940356E2,0E0,4.3422974E1,2.3304547E2,0E0,6.6852875E0,1.6599487E2,0E0,0E0,1.6612187E2,8.6402115E1,0E0,0E0,2.0633545E0,0E0,9.62041E1,0E0,0E0,0E0,0E0,0E0,0E0,0E0,0E0],"parents":[2147483647,0,0,1,1,2,2,3,3,4,4,7,7,8,8,9,9,11,11,12,12,14,14,15,15,18,18,19,19,22,22,24,24],"right_children":[2,4,6,8,10,-1,-1,12,14,16,-1,18,20,-1,22,24,-1,-1,26,28,-1,-1,30,-1,32,-1,-1,-1,-1,-1,-1,-1,-1],"split_conditions":[4.64E2,4.7023E4,4.77E2,1E0,1.371873E6,3.7137994E-1,-5.202971E-2,3.2E2,1E0,2.4199985E9,-5.313298E-2,1E0,3.23E2,-3.3177678E-2,1E0,1E0,-5.2500438E-2,-5.328208E-2,1E0,2.0208384E9,-5.170197E-2,-3.1166423E-2,2E0,-4.875303E-2,1.7E1,-3.515057E-2,1.1869436E-1,2.9995802E-1,-4.7875468E-2,1.4225167E-1,2.0323057E-1,3.6088836E-1,-4.548407E-2],"split_indices":[19,9,19,0,9,0,0,19,41,10,0,42,19,0,43,43,0,0,14,10,0,0,0,0,17,0,0,0,0,0,0,0,0],"split_type":[0,0,0,0,0,0,0,0,0,0,0,0,0,0,0,0,0,0,0,0,0,0,0,0,0,0,0,0,0,0,0,0,0],"sum_hessian":[4.369289E3,3.9164016E3,4.5288757E2,3.2831528E3,6.332488E2,1.8625453E2,2.6663303E2,3.2275278E3,5.5625153E1,2.885107E2,3.4473807E2,3.0931028E3,1.3442488E2,1.5771528E0,5.4048E1,2.224927E2,6.6018005E1,1.244806E3,1.8482969E3,4.2316006E1,9.210887E1,1.4060267E0,5.264197E1,1.07586155E1,2.117341E2,1.7761846E3,7.211229E1,3.3635998E1,8.68001E0,3.1310625E1,2.1331347E1,2.0595673E2,5.777363E0],"tree_param":{"num_deleted":"0","num_feature":"45","num_nodes":"33","size_leaf_vector":"1"}},{"base_weights":[-1.2780769E-3,7.532075E-1,-4.5761248E-1,1.1886882E0,-5.3188473E-2,-5.3273063E-2,4.0787104E-1,5.590607E-1,2.9115272E0,-4.4537893E-1,1.6721072E0,6.512742E-2,1.9060614E0,3.1209216E0,-5.0698407E-2,-5.121976E-1,3.900417E-1,3.5874993E-1,-5.2013732E-2,3.9152414E-1,-5.104622E-1,-1.4471146E-1,3.0203774E0,3.2334273E0,-4.8125934E-2,-5.283305E-2,-2.1826066E-1,2.658954E-1,-4.6851587E-2,5.4864496E-2,-5.292799E-2,-5.2693285E-2,7.581376E-2,2.093325E-1,-5.2571982E-2,3.611371E-1,-5.116714E-2,2.1949792E-1,3.5294703E-1,6.08701E-2,-4.5477066E-2],"categories":[],"categories_nodes":[],"categories_segments":[],"categories_sizes":[],"default_left":[0,0,0,0,0,0,0,0,0,0,0,0,0,0,0,0,0,0,0,0,0,0,0,0,0,0,0,0,0,0,0,0,0,0,0,0,0,0,0,0,0],"id":26,"left_children":[1,3,5,7,-1,-1,9,11,13,15,17,19,21,23,-1,25,27,-1,-1,29,31,33,35,37,-1,-1,39,-1,-1,-1,-1,-1,-1,-1,-1,-1,-1,-1,-1,-1,-1],"loss_changes":[1.5016406E3,9.2052814E2,1.7690515E2,1.3304653E3,0E0,0E0,2.3548004E2,5.9906067E2,2.366831E2,7.496311E0,3.709428E2,1.2419223E2,5.525363E2,1.2703516E2,0E0,4.6067047E-1,2.1208803E1,0E0,0E0,6.1304924E1,5.398731E0,7.444383E1,3.287057E2,8.459473E1,0E0,0E0,1.8461171E0,0E0,0E0,0E0,0E0,0E0,0E0,0E0,0E0,0E0,0E0,0E0,0E0,0E0,0E0],"parents":[2147483647,0,0,1,1,2,2,3,3,6,6,7,7,8,8,9,9,10,10,11,11,12,12,13,13,15,15,16,16,19,19,20,20,21,21,22,22,23,23,26,26],"right_children":[2,4,6,8,-1,-1,10,12,14,16,18,20,22,24,-1,26,28,-1,-1,30,32,34,36,38,-1,-1,40,-1,-1,-1,-1,-1,-1,-1,-1,-1,-1,-1,-1,-1,-1],"split_conditions":[1E0,4.5918E4,2E0,3.6614E4,-5.3188473E-2,-5.3273063E-2,3.14E2,3.04E2,4.85E2,3.04E2,2E0,2E0,2.86E2,7.37E2,-5.0698407E-2,2.81E2,2E0,3.5874993E-1,-5.2013732E-2,1.838E3,2.79E2,1E0,4.85E2,2.86E2,-4.8125934E-2,-5.283305E-2,3.031E3,2.658954E-1,-4.6851587E-2,5.4864496E-2,-5.292799E-2,-5.2693285E-2,7.581376E-2,2.093325E-1,-5.2571982E-2,3.611371E-1,-5.116714E-2,2.1949792E-1,3.5294703E-1,6.08701E-2,-4.5477066E-2],"split_indices":[41,16,41,16,0,0,19,20,20,19,9,9,9,9,0,19,9,0,0,16,20,9,9,9,0,0,9,0,0,0,0,0,0,0,0,0,0,0,0,0,0],"split_type":[0,0,0,0,0,0,0,0,0,0,0,0,0,0,0,0,0,0,0,0,0,0,0,0,0,0,0,0,0,0,0,0,0,0,0,0,0,0,0,0,0],"sum_hessian":[4.3594585E3,1.6427495E3,2.7167087E3,1.2270222E3,4.1572733E2,2.5001013E3,2.1660754E2,8.99585E2,3.2743716E2,1.2971133E2,8.689621E1,6.589882E2,2.405968E2,3.0862027E2,1.881689E1,1.2046332E2,9.248011E0,4.603681E1,4.0859398E1,4.2072794E2,2.3826028E2,8.501198E1,1.5558482E2,2.993724E2,9.247845E0,1.134397E2,7.023623E0,1.9631054E0,7.284905E0,3.5974692E2,6.098102E1,2.3578366E2,2.476611E0,1.1713415E1,7.329857E1,1.3326419E2,2.2320639E1,6.827926E1,2.3109315E2,1.212036E0,5.811587E0],"tree_param":{"num_deleted":"0","num_feature":"45","num_nodes":"41","size_leaf_vector":"1"}},{"base_weights":[-2.2035187E-2,7.475334E-1,-4.8497063E-1,1.288352E0,-3.2461634E-1,-5.327312E-2,8.203069E-2,9.543038E-1,3.0239315E0,-4.4707987E-1,3.6917815E-1,1.895182E0,-5.295859E-2,1.0385996E-1,1.65499E0,3.542084E-1,2.1002102E0,-4.6354628E-1,2.4811116E-1,-5.1103037E-2,3.7393805E-1,2.3330803E-1,-5.2611407E-2,6.3386154E-1,1.1181382E0,-5.1348627E-2,3.88061E-1,-5.288899E-1,-3.5797048E-1,5.7610064E-3,5.823509E-2,6.150326E-2,3.580882E-1,-5.3192746E-2,2.5139856E-3,1.2976236E-2,-4.877804E-2],"categories":[],"categories_nodes":[],"categories_segments":[],"categories_sizes":[],"default_left":[0,0,0,0,0,0,0,0,0,0,0,0,0,0,0,0,0,0,0,0,0,0,0,0,0,0,0,0,0,0,0,0,0,0,0,0,0],"id":27,"left_children":[1,3,5,7,9,-1,11,13,15,17,-1,19,-1,21,23,-1,25,27,-1,-1,-1,29,-1,-1,31,-1,-1,33,35,-1,-1,-1,-1,-1,-1,-1,-1],"loss_changes":[1.5501432E3,9.4806445E2,7.361548E1,6.270596E2,2.7157422E2,0E0,2.3602827E2,5.436622E2,7.627942E1,2.6870575E1,0E0,2.400998E2,0E0,3.3829227E1,1.250891E3,0E0,3.0592407E2,3.4758987E0,0E0,0E0,0E0,2.1036068E1,0E0,0E0,5.5544556E2,0E0,0E0,5.621414E-1,1.3119053E1,0E0,0E0,0E0,0E0,0E0,0E0,0E0,0E0],"parents":[2147483647,0,0,1,1,2,2,3,3,4,4,6,6,7,7,8,8,9,9,11,11,13,13,14,14,16,16,17,17,21,21,24,24,27,27,28,28],"right_children":[2,4,6,8,10,-1,12,14,16,18,-1,20,-1,22,24,-1,26,28,-1,-1,-1,30,-1,-1,32,-1,-1,34,36,-1,-1,-1,-1,-1,-1,-1,-1],"split_conditions":[1E0,2.05E2,2E0,1.08E2,1.44E3,-5.327312E-2,1.2E2,1.838E3,1.21E2,7.7578E4,3.6917815E-1,1.07E2,-5.295859E-2,2E0,3.647E3,3.542084E-1,1.838E3,7.05E2,2.4811116E-1,-5.1103037E-2,3.7393805E-1,3.084897E8,-5.2611407E-2,6.3386154E-1,1E0,-5.1348627E-2,3.88061E-1,2.72E2,3.647E3,5.7610064E-3,5.823509E-2,6.150326E-2,3.580882E-1,-5.3192746E-2,2.5139856E-3,1.2976236E-2,-4.877804E-2],"split_indices":[41,20,41,20,19,0,19,16,20,20,0,19,0,20,16,0,16,20,0,0,0,10,0,0,13,0,0,19,16,0,0,0,0,0,0,0,0],"split_type":[0,0,0,0,0,0,0,0,0,0,0,0,0,0,0,0,0,0,0,0,0,0,0,0,0,0,0,0,0,0,0,0,0,0,0,0,0],"sum_hessian":[4.3491323E3,1.6333276E3,2.7158044E3,1.0855486E3,5.4777905E2,2.5048708E3,2.109337E2,9.116353E2,1.7391327E2,5.324334E2,1.5345682E1,5.2675964E1,1.5825774E2,4.123283E2,4.9930704E2,1.0959976E2,6.431351E1,5.30293E2,2.1403584E0,2.3169079E1,2.9506886E1,3.4256677E2,6.976152E1,5.023527E1,4.4907175E2,2.6346865E1,3.796664E1,3.2508182E2,2.0521121E2,2.2864076E2,1.13926025E2,3.7393216E2,7.51396E1,3.2334888E2,1.7329258E0,4.313628E1,1.6207494E2],"tree_param":{"num_deleted":"0","num_feature":"45","num_nodes":"37","size_leaf_vector":"1"}},{"base_weights":[-2.0173747E-2,-4.1776094E-1,3.2750175E0,-4.8875284E-1,5.276921E-2,6.467966E-2,3.61439E0,-4.0775687E-1,-5.304813E-1,-1.2855953E-1,3.658968E-1,3.6045733E-1,-2.8712597E-1,7.2242045E-1,3.6521828E-1,-4.4534197E-1,-1.299472E-1,-5.3136945E-1,1.3095412E-1,7.667581E-1,-5.313635E-2,4.7954845E-1,-4.8902744E-1,2.1743372E-1,-4.2395994E-2,-4.025629E-1,-5.1596224E-1,-4.715333E-1,1.4884368E0,-5.327071E-2,-4.458175E-1,6.334142E-2,-3.304408E-2,-2.4273437E-1,2.9906285E0,-4.6987835E-2,3.7339032E-1,-5.1529814E-2,-2.903757E-1,-4.403E-2,-2.6592508E-2,-2.4061222E-2,-5.3168394E-2,-4.79416E-2,9.479329E-3,4.5617792E-1,-5.02056E-2,-2.0375336E-2,-4.8775125E-2,2.0919566E-1,-3.688241E-2,3.6644396E-1,-3.6438968E-2,-4.312737E-2,1.965406E-2],"categories":[],"categories_nodes":[],"categories_segments":[],"categories_sizes":[],"default_left":[0,0,0,0,0,0,0,0,0,0,0,0,0,0,0,0,0,0,0,0,0,0,0,0,0,0,0,0,0,0,0,0,0,0,0,0,0,0,0,0,0,0,0,0,0,0,0,0,0,0,0,0,0,0,0],"id":28,"left_children":[1,3,5,7,9,11,13,15,17,19,-1,-1,21,23,-1,25,27,29,31,33,-1,35,37,-1,-1,39,41,43,45,-1,47,-1,-1,49,51,-1,-1,-1,53,-1,-1,-1,-1,-1,-1,-1,-1,-1,-1,-1,-1,-1,-1,-1,-1],"loss_changes":[5.70402E3,1.2979944E2,5.1047754E2,1.1193298E1,3.3410278E2,5.8114605E1,4.3693848E1,1.19722595E1,1.3765259E0,1.7594878E2,0E0,0E0,6.831299E0,1.2098649E1,0E0,2.8569794E0,7.738404E1,1.6784668E-2,1.0868957E0,3.4072275E2,0E0,3.0762703E1,2.8998375E-2,0E0,0E0,3.1638565E0,1.5133438E0,5.6014824E-1,1.5165074E2,0E0,3.1006336E-1,0E0,0E0,3.1707687E1,1.0839676E2,0E0,0E0,0E0,5.1621234E-1,0E0,0E0,0E0,0E0,0E0,0E0,0E0,0E0,0E0,0E0,0E0,0E0,0E0,0E0,0E0,0E0],"parents":[2147483647,0,0,1,1,2,2,3,3,4,4,5,5,6,6,7,7,8,8,9,9,12,12,13,13,15,15,16,16,17,17,18,18,19,19,21,21,22,22,25,25,26,26,27,27,28,28,30,30,33,33,34,34,38,38],"right_children":[2,4,6,8,10,12,14,16,18,20,-1,-1,22,24,-1,26,28,30,32,34,-1,36,38,-1,-1,40,42,44,46,-1,48,-1,-1,50,52,-1,-1,-1,54,-1,-1,-1,-1,-1,-1,-1,-1,-1,-1,-1,-1,-1,-1,-1,-1],"split_conditions":[1E0,4.87E2,2.23E2,1E0,2E0,3.7E1,2E0,4.86E2,8.7E1,1E0,3.658968E-1,3.6045733E-1,8.6E1,4.16E2,3.6521828E-1,2E0,2.61E2,1.28E2,2.4021E4,4.89E2,-5.313635E-2,3.9E1,5.4775E4,2.1743372E-1,-4.2395994E-2,4.8044E4,1E0,4.2466888E9,4.78E2,-5.327071E-2,2.24E2,6.334142E-2,-3.304408E-2,4.97E2,5.1416E4,-4.6987835E-2,3.7339032E-1,-5.1529814E-2,1.5E2,-4.403E-2,-2.6592508E-2,-2.4061222E-2,-5.3168394E-2,-4.79416E-2,9.479329E-3,4.5617792E-1,-5.02056E-2,-2.0375336E-2,-4.8775125E-2,2.0919566E-1,-3.688241E-2,3.6644396E-1,-3.6438968E-2,-4.312737E-2,1.965406E-2],"split_indices":[6,20,9,41,41,6,20,9,20,41,0,0,6,9,0,20,20,19,11,9,0,6,11,0,0,16,9,10,20,0,19,0,0,20,16,0,0,0,9,0,0,0,0,0,0,0,0,0,0,0,0,0,0,0,0],"split_type":[0,0,0,0,0,0,0,0,0,0,0,0,0,0,0,0,0,0,0,0,0,0,0,0,0,0,0,0,0,0,0,0,0,0,0,0,0,0,0,0,0,0,0,0,0,0,0,0,0,0,0,0,0,0,0],"sum_hessian":[4.3517515E3,3.8839941E3,4.6775705E2,3.3747808E3,5.0921344E2,4.483404E1,4.22923E2,1.1511465E3,2.2236343E3,4.8575293E2,2.3460526E1,3.21713E0,4.1616913E1,5.715026E0,4.1720798E2,1.01343494E3,1.377116E2,2.2208486E3,2.7854476E0,1.5044757E2,3.3530536E2,8.388469E0,3.3228443E1,2.1258683E0,3.5891578E0,6.3529663E2,3.7813828E2,1.1429618E2,2.3415417E1,2.181512E3,3.9336792E1,1.1549166E0,1.630531E0,1.0408886E2,4.635872E1,7.1563015E0,1.2321669E0,2.7939598E1,5.2888474E0,4.9606833E2,1.3922832E2,2.1305058E1,3.5683322E2,1.12878494E2,1.4176883E0,8.69636E0,1.4719057E1,6.6733813E0,3.266341E1,4.5346055E0,9.955425E1,3.852854E1,7.830178E0,4.190521E0,1.0983266E0],"tree_param":{"num_deleted":"0","num_feature":"45","num_nodes":"55","size_leaf_vector":"1"}},{"base_weights":[-5.0871554E-3,7.379602E-1,-4.5570332E-1,3.4099215E-1,2.8574805E0,-4.7726405E-1,3.7024364E-1,8.7222236E-1,-5.172301E-2,3.0794587E0,-5.021506E-2,-5.327318E-2,1.948658E-1,5.0853276E-1,1.6486982E0,2.7911491E0,4.123546E0,3.0495038E0,-5.2972633E-2,3.573496E-1,3.5650867E-1,3.6272463E-1,7.0396066E-1,3.356621E0,-4.8404213E-2,5.161882E-1,3.694125E-1,-4.5844298E-2,3.6571917E-1,1.4966418E-2,2.8838158E-1,-5.2467447E-2,1.357613E-1,2.5973195E-1,3.9500096E-1,-2.4801899E-2,2.9569906E-1],"categories":[],"categories_nodes":[],"categories_segments":[],"categories_sizes":[],"default_left":[0,0,0,0,0,0,0,0,0,0,0,0,0,0,0,0,0,0,0,0,0,0,0,0,0,0,0,0,0,0,0,0,0,0,0,0,0],"id":29,"left_children":[1,3,5,7,9,11,-1,13,-1,15,-1,-1,17,19,21,23,25,27,-1,-1,29,-1,31,33,35,-1,-1,-1,-1,-1,-1,-1,-1,-1,-1,-1,-1],"loss_changes":[1.4657866E3,1.3895103E3,2.4607849E2,6.355662E2,1.9586304E2,1.0120825E2,0E0,2.4225458E2,0E0,6.2105225E1,0E0,0E0,4.3076218E2,2.7255627E2,5.0986957E2,3.1283716E2,3.592102E0,9.152832E1,0E0,0E0,2.928484E2,0E0,1.5071893E2,6.2913696E1,2.0725428E1,0E0,0E0,0E0,0E0,0E0,0E0,0E0,0E0,0E0,0E0,0E0,0E0],"parents":[2147483647,0,0,1,1,2,2,3,3,4,4,5,5,7,7,9,9,12,12,13,13,14,14,15,15,16,16,17,17,20,20,22,22,23,23,24,24],"right_children":[2,4,6,8,10,12,-1,14,-1,16,-1,-1,18,20,22,24,26,28,-1,-1,30,-1,32,34,36,-1,-1,-1,-1,-1,-1,-1,-1,-1,-1,-1,-1],"split_conditions":[1E0,5.8759E4,4E0,3.3346E4,2.22E2,2E0,3.7024364E-1,4.33E2,-5.172301E-2,1.21E2,-5.021506E-2,-5.327318E-2,1.07E2,8E1,4.71E2,1.08E2,1.22E2,1.02E2,-5.2972633E-2,3.573496E-1,3.647E3,3.6272463E-1,4.85E2,1.03E2,1E0,5.161882E-1,3.694125E-1,-4.5844298E-2,3.6571917E-1,1.4966418E-2,2.8838158E-1,-5.2467447E-2,1.357613E-1,2.5973195E-1,3.9500096E-1,-2.4801899E-2,2.9569906E-1],"split_indices":[41,16,41,16,9,41,0,9,0,9,0,0,19,16,9,9,9,19,0,0,16,0,9,9,6,0,0,0,0,0,0,0,0,0,0,0,0],"split_type":[0,0,0,0,0,0,0,0,0,0,0,0,0,0,0,0,0,0,0,0,0,0,0,0,0,0,0,0,0,0,0,0,0,0,0,0,0],"sum_hessian":[4.375711E3,1.6516201E3,2.7240908E3,1.39206E3,2.595601E2,2.7109194E3,1.3171408E1,8.5982275E2,5.3223724E2,2.4355151E2,1.6008581E1,2.5044465E3,2.0647281E2,5.8668384E2,2.7313895E2,1.9372931E2,4.982221E1,4.1149532E1,1.6532327E2,2.6661161E1,5.6002264E2,8.7354485E1,1.8578445E2,1.6140486E2,3.2324436E1,1.1352182E1,3.8470028E1,6.112137E0,3.5037395E1,5.186348E2,4.1387844E1,6.458494E1,1.21199524E2,7.3162735E1,8.824213E1,3.1171537E1,1.1529013E0],"tree_param":{"num_deleted":"0","num_feature":"45","num_nodes":"37","size_leaf_vector":"1"}},{"base_weights":[-2.924322E-2,-2.1012655E-1,1.3819878E0,-4.6269894E-1,1.0582128E0,1.8551588E0,-5.250877E-2,-4.6974E-1,5.4324675E-1,-3.1574702E-1,2.58489E-1,1.2695588E0,2.612854E-1,-4.7838664E-1,9.6741244E-2,-4.7819696E-2,1.2150776E0,-5.1775854E-2,3.8488328E-1,2.1202712E0,-5.2526962E-2,-5.102538E-1,-4.0589452E-1,-4.387616E-2,2.7076915E-2,1.8992449E0,-4.2238064E-2,3.6919634E0,-5.2526694E-2,-5.113095E-2,2.634177E-1,-4.750819E-2,-5.3045977E-2,1.3880737E-1,-5.105536E-2,-2.7193645E-2,-2.4635883E-3,1.0552236E-1,2.7226007E-1,-3.0238498E-2,4.052752E-1],"categories":[],"categories_nodes":[],"categories_segments":[],"categories_sizes":[],"default_left":[0,0,0,0,0,0,0,0,0,0,0,0,0,0,0,0,0,0,0,0,0,0,0,0,0,0,0,0,0,0,0,0,0,0,0,0,0,0,0,0,0],"id":30,"left_children":[1,3,5,7,9,11,-1,13,15,17,-1,19,-1,21,23,-1,25,-1,27,29,-1,31,33,35,-1,37,-1,39,-1,-1,-1,-1,-1,-1,-1,-1,-1,-1,-1,-1,-1],"loss_changes":[1.0956414E3,1.2192012E3,4.410063E2,2.2731262E1,1.3266584E3,1.7013708E2,0E0,1.5483948E1,1.6035458E1,4.7411148E1,0E0,3.4076443E2,0E0,6.9647827E0,1.1917901E0,0E0,1.6337986E1,0E0,2.2836662E2,2.0571191E2,0E0,1.277771E0,1.7961823E2,1.1409384E-1,0E0,4.050522E0,0E0,2.4801773E1,0E0,0E0,0E0,0E0,0E0,0E0,0E0,0E0,0E0,0E0,0E0,0E0,0E0],"parents":[2147483647,0,0,1,1,2,2,3,3,4,4,5,5,7,7,8,8,9,9,11,11,13,13,14,14,16,16,18,18,19,19,21,21,22,22,23,23,25,25,27,27],"right_children":[2,4,6,8,10,12,-1,14,16,18,-1,20,-1,22,24,-1,26,-1,28,30,-1,32,34,36,-1,38,-1,40,-1,-1,-1,-1,-1,-1,-1,-1,-1,-1,-1,-1,-1],"split_conditions":[1.15743E5,5.6322E4,2E0,5.0069E4,1.441E3,2.0208384E9,-5.250877E-2,1E0,1.4357477E9,2E1,2.58489E-1,1.4630981E9,2.612854E-1,4.321E3,2E0,-4.7819696E-2,2E0,-5.1775854E-2,2E0,1.032927E9,-5.2526962E-2,8E1,4.531E3,1E0,2.7076915E-2,2.0208384E9,-4.2238064E-2,5.796E4,-5.2526694E-2,-5.113095E-2,2.634177E-1,-4.750819E-2,-5.3045977E-2,1.3880737E-1,-5.105536E-2,-2.7193645E-2,-2.4635883E-3,1.0552236E-1,2.7226007E-1,-3.0238498E-2,4.052752E-1],"split_indices":[20,16,9,20,9,10,0,0,10,17,0,10,0,16,0,0,9,0,9,10,0,16,16,44,0,10,0,16,0,0,0,0,0,0,0,0,0,0,0,0,0],"split_type":[0,0,0,0,0,0,0,0,0,0,0,0,0,0,0,0,0,0,0,0,0,0,0,0,0,0,0,0,0,0,0,0,0,0,0,0,0,0,0,0,0],"sum_hessian":[4.2899814E3,3.8033425E3,4.8663907E2,3.1722646E3,6.310778E2,3.8992154E2,9.6717545E1,3.1507441E3,2.15205E1,3.325694E2,2.9850842E2,2.2144713E2,1.6847441E2,3.1035283E3,4.721597E1,8.652921E0,1.2867579E1,2.5834286E2,7.422654E1,1.5011453E2,7.133259E1,2.1516404E3,9.5188776E2,2.6528435E1,2.0687532E1,8.9628315E0,3.9047487E0,1.5359723E1,5.8866817E1,2.452636E1,1.2558817E2,7.9402374E2,1.3576167E3,5.179548E1,9.000923E2,1.0421259E0,2.548631E1,5.5525403E0,3.4102907E0,1.2858421E0,1.4073881E1],"tree_param":{"num_deleted":"0","num_feature":"45","num_nodes":"41","size_leaf_vector":"1"}},{"base_weights":[1.03856465E-2,7.726591E-1,-5.3049535E-2,1.3280264E0,2.7170995E-1,1.8039593E0,-1.8651693E-1,-6.4195804E-2,8.3322394E-1,1.3177968E0,2.6177492E0,-4.0327728E-1,5.898428E-2,-5.183521E-1,1.6252533E-1,1.7815E0,-5.203428E-1,1.5098567E-1,1.8857293E0,2.625607E-1,5.7350185E-2,-5.314451E-2,-2.8069535E-1,2.104142E-1,-2.6245388E-1,-5.282063E-2,-2.2791824E-1,-2.8120255E-1,7.423558E-1,1.9168092E0,-4.9311217E-2,-5.2702546E-2,-1.753698E-1,1.6904576E-3,1.3461433E-1,1.9247773E-1,1.4038397E-1,3.022495E-1,-3.995243E-2,1.2166478E-2,2.2550848E-1,-4.8847716E-2,-1.2342901E-2,-4.5210134E-2,4.1415464E-2,1.041133E-1,-3.6865395E-2,3.57403E-2,2.643468E-1,1.4345253E-1,2.7660358E-1,2.2948941E-2,-3.6883127E-2],"categories":[],"categories_nodes":[],"categories_segments":[],"categories_sizes":[],"default_left":[0,0,0,0,0,0,0,0,0,0,0,0,0,0,0,0,0,0,0,0,0,0,0,0,0,0,0,0,0,0,0,0,0,0,0,0,0,0,0,0,0,0,0,0,0,0,0,0,0,0,0,0,0],"id":31,"left_children":[1,3,-1,5,7,9,11,13,15,17,19,21,23,25,27,29,31,33,35,-1,-1,-1,37,39,41,-1,43,45,47,49,-1,-1,51,-1,-1,-1,-1,-1,-1,-1,-1,-1,-1,-1,-1,-1,-1,-1,-1,-1,-1,-1,-1],"loss_changes":[1.7818114E3,4.986703E2,0E0,6.133209E2,1.7816685E2,2.525874E2,1.0892437E1,6.101867E1,4.5470428E2,2.695172E2,2.3657227E0,1.557003E0,4.7593775E0,4.442711E-1,1.0196389E2,6.499811E1,2.4510956E-1,2.1511477E1,2.4492798E0,0E0,0E0,0E0,2.3827238E1,1.1747518E1,9.261906E-1,0E0,1.3723698E0,2.6375792E1,1.24731476E2,7.6567566E1,0E0,0E0,4.1995773E-1,0E0,0E0,0E0,0E0,0E0,0E0,0E0,0E0,0E0,0E0,0E0,0E0,0E0,0E0,0E0,0E0,0E0,0E0,0E0,0E0],"parents":[2147483647,0,0,1,1,3,3,4,4,5,5,6,6,7,7,8,8,9,9,10,10,11,11,12,12,13,13,14,14,15,15,16,16,17,17,18,18,22,22,23,23,24,24,26,26,27,27,28,28,29,29,32,32],"right_children":[2,4,-1,6,8,10,12,14,16,18,20,22,24,26,28,30,32,34,36,-1,-1,-1,38,40,42,-1,44,46,48,50,-1,-1,52,-1,-1,-1,-1,-1,-1,-1,-1,-1,-1,-1,-1,-1,-1,-1,-1,-1,-1,-1,-1],"split_conditions":[1E0,2E0,-5.3049535E-2,1.838E3,4.86E2,1.8E1,1E0,3.2892E4,1.441E3,1E0,3.99E2,3.429E4,5.8759E4,3.647E3,2.62E2,4.94E2,5.1126E4,1E0,5.9883E4,2.625607E-1,5.7350185E-2,-5.314451E-2,3.8888E4,5.7516E4,5.9534E4,-5.282063E-2,1.22E2,8.7E1,5.4707E4,7.37E2,-4.9311217E-2,-5.2702546E-2,4.94E2,1.6904576E-3,1.3461433E-1,1.9247773E-1,1.4038397E-1,3.022495E-1,-3.995243E-2,1.2166478E-2,2.2550848E-1,-4.8847716E-2,-1.2342901E-2,-4.5210134E-2,4.1415464E-2,1.041133E-1,-3.6865395E-2,3.57403E-2,2.643468E-1,1.4345253E-1,2.7660358E-1,2.2948941E-2,-3.6883127E-2],"split_indices":[41,9,0,16,9,17,15,16,9,14,19,16,16,16,9,19,16,13,11,0,0,0,16,16,16,0,9,9,16,9,0,0,19,0,0,0,0,0,0,0,0,0,0,0,0,0,0,0,0,0,0,0,0],"split_type":[0,0,0,0,0,0,0,0,0,0,0,0,0,0,0,0,0,0,0,0,0,0,0,0,0,0,0,0,0,0,0,0,0,0,0,0,0,0,0,0,0,0,0,0,0,0,0,0,0,0,0,0,0],"sum_hessian":[4.319652E3,1.7927161E3,2.526936E3,8.493975E2,9.4331854E2,6.4615686E2,2.0324062E2,5.90787E2,3.525316E2,4.0614377E2,2.400131E2,1.07597176E2,9.564344E1,1.9629416E2,3.944928E2,2.071154E2,1.4541618E2,1.3338063E2,2.7276315E2,2.388108E2,1.2023042E0,5.0969566E1,5.662761E1,6.524965E1,3.0393795E1,1.8906076E2,7.23339E0,2.2376602E2,1.7072678E2,1.9563503E2,1.1480378E1,1.421351E2,3.2810895E0,1.2083829E2,1.2542336E1,2.4954782E2,2.3215332E1,1.1178585E0,5.550975E1,6.3550716E1,1.698931E0,1.0617889E1,1.9775906E1,5.5807233E0,1.6526666E0,1.3204104E1,2.1056192E2,1.4296587E2,2.7760908E1,1.264896E2,6.9145424E1,1.0006951E0,2.2803946E0],"tree_param":{"num_deleted":"0","num_feature":"45","num_nodes":"53","size_leaf_vector":"1"}},{"base_weights":[1.533974E-1,-5.258701E-1,2.4711387E0,-5.2699786E-1,1.5320869E-2,2.5769633E-1,-5.1658787E-2,-5.014031E-1,-5.3067427E-2,-4.3504527E-1,-5.2863907E-2,-5.1991403E-2,-3.8851216E-1,-2.804927E-2,-5.1846325E-2],"categories":[],"categories_nodes":[],"categories_segments":[],"categories_sizes":[],"default_left":[0,0,0,0,0,0,0,0,0,0,0,0,0,0,0],"id":32,"left_children":[1,3,5,7,-1,-1,-1,9,-1,11,-1,-1,13,-1,-1],"loss_changes":[7.082426E3,2.7454224E0,3.2369873E2,6.072998E-2,0E0,0E0,0E0,5.912781E-1,0E0,3.4253693E-1,0E0,0E0,1.1601973E0,0E0,0E0],"parents":[2147483647,0,0,1,1,2,2,3,3,7,7,9,9,12,12],"right_children":[2,4,6,8,-1,-1,-1,10,-1,12,-1,-1,14,-1,-1],"split_conditions":[3.74E2,2.56E2,1.22E3,8E1,1.5320869E-2,2.5769633E-1,-5.1658787E-2,1.22E3,-5.3067427E-2,1E0,-5.2863907E-2,-5.1991403E-2,1E0,-2.804927E-2,-5.1846325E-2],"split_indices":[3,3,22,16,0,0,0,22,0,42,0,0,0,0,0],"split_type":[0,0,0,0,0,0,0,0,0,0,0,0,0,0,0],"sum_hessian":[4.496763E3,3.4781765E3,1.0185866E3,3.472633E3,5.5433083E0,9.838754E2,3.4711185E1,4.534112E2,3.019222E3,1.3688289E2,3.1652832E2,4.487157E1,9.2011314E1,5.1970364E1,4.0040955E1],"tree_param":{"num_deleted":"0","num_feature":"45","num_nodes":"15","size_leaf_vector":"1"}},{"base_weights":[-1.7547587E-2,-2.8046268E-1,1.8270295E0,-5.245752E-1,1.1312995E0,-5.0920285E-2,1.9356646E-1,-5.3003903E-2,6.73525E-1,-5.2918114E-2,2.5984764E-1,1.868508E-1,-4.6850502E-2],"categories":[],"categories_nodes":[],"categories_segments":[],"categories_sizes":[],"default_left":[0,0,0,0,0,0,0,0,0,0,0,0,0],"id":33,"left_children":[1,3,5,7,9,-1,-1,-1,11,-1,-1,-1,-1],"loss_changes":[2.1005125E3,1.3070315E3,1.381211E2,2.1518738E1,1.3636421E3,0E0,0E0,0E0,2.1504038E1,0E0,0E0,0E0,0E0],"parents":[2147483647,0,0,1,1,2,2,3,3,4,4,8,8],"right_children":[2,4,6,8,10,-1,-1,-1,12,-1,-1,-1,-1],"split_conditions":[3.320172E7,1E0,1E0,2.373441E6,2E0,-5.0920285E-2,1.9356646E-1,-5.3003903E-2,3.3287118E7,-5.2918114E-2,2.5984764E-1,1.868508E-1,-4.6850502E-2],"split_indices":[9,13,14,9,9,0,0,0,10,0,0,0,0],"split_type":[0,0,0,0,0,0,0,0,0,0,0,0,0],"sum_hessian":[4.329191E3,3.7898552E3,5.393356E2,3.2316826E3,5.581726E2,2.3800959E1,5.155346E2,3.217567E3,1.4115804E1,2.621374E2,2.9603522E2,6.587124E0,7.52868E0],"tree_param":{"num_deleted":"0","num_feature":"45","num_nodes":"13","size_leaf_vector":"1"}},{"base_weights":[1.7979081E-1,-5.2816087E-1,2.5781064E0,-5.30754E-2,-4.9274725E-1,2.5814566E-1,-3.1131176E-2,2.383734E0,-5.282842E-2,2.895447E-1,6.897424E-2],"categories":[],"categories_nodes":[],"categories_segments":[],"categories_sizes":[],"default_left":[0,0,0,0,0,0,0,0,0,0,0],"id":34,"left_children":[1,3,5,-1,7,-1,-1,9,-1,-1,-1],"loss_changes":[7.700496E3,6.0058594E-2,1.0808594E1,0E0,2.7110088E1,0E0,0E0,8.353424E-1,0E0,0E0,0E0],"parents":[2147483647,0,0,1,1,2,2,4,4,7,7],"right_children":[2,4,6,-1,8,-1,-1,10,-1,-1,-1],"split_conditions":[1.22E3,1.8217E4,1.5E1,-5.30754E-2,3.96E2,2.5814566E-1,-3.1131176E-2,3.9126E4,-5.282842E-2,2.895447E-1,6.897424E-2],"split_indices":[22,3,21,0,2,0,0,3,0,0,0],"split_type":[0,0,0,0,0,0,0,0,0,0,0],"sum_hessian":[4.5335264E3,3.5008892E3,1.0326373E3,3.2489985E3,2.5189055E2,1.031548E3,1.0893377E0,2.2675743E0,2.4962297E2,1.1968043E0,1.0707701E0],"tree_param":{"num_deleted":"0","num_feature":"45","num_nodes":"11","size_leaf_vector":"1"}},{"base_weights":[-4.764959E-1,-4.8444495E-1,2.7563825E-1,-4.896826E-1,2.628692E-1,-5.135313E-1,-2.5495622E-1,-5.1928633E-1,-6.621411E-2,-3.1514218E-1,-2.1967064E-1,-5.2654397E-2,-5.0299895E-1,-2.8105373E-2,-5.4573204E-2,-2.2532038E-1,-4.3244764E-2,6.834124E-2,-2.4939547E-1,-4.2349614E-2,-5.2997053E-2,-2.7348552E-2,-4.2992053E-3,-2.4435122E-2,3.5242807E-2,1.6339432E-2,-4.1318233E-3,-1.5344575E-2,-2.7472455E-2],"categories":[],"categories_nodes":[],"categories_segments":[],"categories_sizes":[],"default_left":[0,0,0,0,0,0,0,0,0,0,0,0,0,0,0,0,0,0,0,0,0,0,0,0,0,0,0,0,0],"id":35,"left_children":[1,3,-1,5,-1,7,9,11,13,15,17,-1,19,-1,21,23,-1,25,27,-1,-1,-1,-1,-1,-1,-1,-1,-1,-1],"loss_changes":[1.0160919E2,6.476868E1,0E0,2.1631165E1,0E0,9.047791E0,6.964474E-1,1.4685059E-1,9.9603295E-2,1.282342E0,1.9911251E0,0E0,2.125702E0,0E0,1.0191855E-1,9.245038E-1,0E0,2.397861E-1,4.6634197E-1,0E0,0E0,0E0,0E0,0E0,0E0,0E0,0E0,0E0,0E0],"parents":[2147483647,0,0,1,1,3,3,5,5,6,6,7,7,8,8,9,9,10,10,12,12,14,14,15,15,17,17,18,18],"right_children":[2,4,-1,6,-1,8,10,12,14,16,18,-1,20,-1,22,24,-1,26,28,-1,-1,-1,-1,-1,-1,-1,-1,-1,-1],"split_conditions":[6.5535E4,7.647191E7,2.7563825E-1,1.9E3,2.628692E-1,6E0,2.4838E4,2E1,1E0,1.4818E4,2.8556E4,-5.2654397E-2,2.4E1,-2.8105373E-2,1E0,1.4532E4,-4.3244764E-2,2.6678E4,3.6164E4,-4.2349614E-2,-5.2997053E-2,-2.7348552E-2,-4.2992053E-3,-2.4435122E-2,3.5242807E-2,1.6339432E-2,-4.1318233E-3,-1.5344575E-2,-2.7472455E-2],"split_indices":[16,4,0,2,0,1,2,17,43,2,2,0,17,0,41,2,0,2,2,0,0,0,0,0,0,0,0,0,0],"split_type":[0,0,0,0,0,0,0,0,0,0,0,0,0,0,0,0,0,0,0,0,0,0,0,0,0,0,0,0,0],"sum_hessian":[3.9009578E3,3.8922375E3,8.720158E0,3.8865413E3,5.6961575E0,3.5270027E3,3.5953857E2,3.4820432E3,4.4959476E1,1.2995143E2,2.2958714E2,2.3870432E3,1.0950001E3,1.1213154E0,4.3838158E1,7.525151E1,5.469993E1,2.1356754E1,2.082304E2,2.8161057E2,8.133896E2,1.0663732E0,4.2771786E1,7.341046E1,1.8410511E0,1.1177798E1,1.0178955E1,4.496297E1,1.6326741E2],"tree_param":{"num_deleted":"0","num_feature":"45","num_nodes":"29","size_leaf_vector":"1"}},{"base_weights":[-4.5929465E-1,-4.7938958E-1,2.6858747E-1,-2.980566E-1,-5.3067602E-2,2.7488563E0,-5.3079642E-2,-4.91196E-2,3.602889E-1],"categories":[],"categories_nodes":[],"categories_segments":[],"categories_sizes":[],"default_left":[0,0,0,0,0,0,0,0,0],"id":36,"left_children":[1,3,-1,5,-1,7,-1,-1,-1],"loss_changes":[2.4939197E2,3.612561E1,0E0,6.130624E2,0E0,1.7157663E2,0E0,0E0,0E0],"parents":[2147483647,0,0,1,1,3,3,5,5],"right_children":[2,4,-1,6,-1,8,-1,-1,-1],"split_conditions":[5.353E3,8E1,2.6858747E-1,1E0,-5.3067602E-2,1E0,-5.3079642E-2,-4.91196E-2,3.602889E-1],"split_indices":[19,16,0,42,0,41,0,0,0],"split_type":[0,0,0,0,0,0,0,0,0],"sum_hessian":[3.924579E3,3.9005059E3,2.407331E1,8.6146027E2,3.0390454E3,6.0366146E1,8.010941E2,1.2681098E1,4.7685047E1],"tree_param":{"num_deleted":"0","num_feature":"45","num_nodes":"9","size_leaf_vector":"1"}},{"base_weights":[5.285102E-1,2.5732207E-1,-4.5783946E-1,-5.307297E-2,2.5835726E-1],"categories":[],"categories_nodes":[],"categories_segments":[],"categories_sizes":[],"default_left":[0,0,0,0,0],"id":37,"left_children":[1,-1,3,-1,-1],"loss_changes":[1.0055547E4,0E0,7.471046E2,0E0,0E0],"parents":[2147483647,0,0,2,2],"right_children":[2,-1,4,-1,-1],"split_conditions":[1E0,2.5732207E-1,2E0,-5.307297E-2,2.5835726E-1],"split_indices":[43,0,32,0,0],"split_type":[0,0,0,0,0],"sum_hessian":[4.984309E3,1.6214408E3,3.3628682E3,3.2849666E3,7.7901764E1],"tree_param":{"num_deleted":"0","num_feature":"45","num_nodes":"5","size_leaf_vector":"1"}},{"base_weights":[-1.4081167E-2,6.608942E-1,-4.6996406E-1,8.5157E-1,-1.0743814E-1,-5.3048205E-2,2.031616E-1,7.4659204E-1,2.2154639E0,-4.1718718E-1,2.605688E-1,9.90601E-1,-5.2720822E-2,1.0031039E0,-5.295291E-2,2.6303544E0,-4.939165E-2,-2.655132E-1,-5.2890487E-2,1.4608699E0,-5.0993335E-2,7.459549E-1,2.5622478E-1,9.0123475E-2,2.648532E-1,-5.2598067E-2,4.8234314E-2,5.9180915E-1,2.8922233E-1,9.61975E-2,-5.2693583E-2,2.7824187E-1,-5.2262735E-2,2.6365253E-1,-5.149693E-2],"categories":[],"categories_nodes":[],"categories_segments":[],"categories_sizes":[],"default_left":[0,0,0,0,0,0,0,0,0,0,0,0,0,0,0,0,0,0,0,0,0,0,0,0,0,0,0,0,0,0,0,0,0,0,0],"id":38,"left_children":[1,3,5,7,9,-1,11,13,15,17,-1,19,-1,21,-1,23,-1,25,-1,27,-1,29,-1,-1,-1,-1,31,33,-1,-1,-1,-1,-1,-1,-1],"loss_changes":[1.3249994E3,2.5440332E2,1.048042E2,1.9748755E2,2.918848E2,0E0,1.2286815E2,4.2377087E2,1.1246597E2,5.136696E0,0E0,7.322499E1,0E0,4.2985767E2,0E0,3.135376E-1,0E0,1.0984358E1,0E0,9.58907E1,0E0,2.5508911E2,0E0,0E0,0E0,0E0,9.782938E1,1.14686584E2,0E0,0E0,0E0,0E0,0E0,0E0,0E0],"parents":[2147483647,0,0,1,1,2,2,3,3,4,4,6,6,7,7,8,8,9,9,11,11,13,13,15,15,17,17,19,19,21,21,26,26,27,27],"right_children":[2,4,6,8,10,-1,12,14,16,18,-1,20,-1,22,-1,24,-1,26,-1,28,-1,30,-1,-1,-1,-1,32,34,-1,-1,-1,-1,-1,-1,-1],"split_conditions":[1E0,2E1,2E0,1.759E3,1.415E3,-5.3048205E-2,2E0,3.09E2,2.545E3,2E0,2.605688E-1,2.63E2,-5.2720822E-2,2.22E2,-5.295291E-2,4.802394E7,-4.939165E-2,3.02E2,-5.2890487E-2,2.08E2,-5.0993335E-2,1.03E2,2.5622478E-1,9.0123475E-2,2.648532E-1,-5.2598067E-2,3.04E2,1.02E2,2.8922233E-1,9.61975E-2,-5.2693583E-2,2.7824187E-1,-5.2262735E-2,2.6365253E-1,-5.149693E-2],"split_indices":[41,17,41,20,6,0,20,20,20,20,0,19,0,20,0,10,0,19,0,19,0,20,0,0,0,0,19,19,0,0,0,0,0,0,0],"split_type":[0,0,0,0,0,0,0,0,0,0,0,0,0,0,0,0,0,0,0,0,0,0,0,0,0,0,0,0,0,0,0,0,0,0,0],"sum_hessian":[4.303995E3,1.7348883E3,2.569107E3,1.3898605E3,3.4502783E2,2.3573767E3,2.1173033E2,1.2919662E3,9.7894325E1,3.104329E2,3.4594913E1,1.0171318E2,1.1001714E2,1.0759121E3,2.1605403E2,8.491965E1,1.297468E1,1.3310245E2,1.7733046E2,7.746272E1,2.4250458E1,9.248547E2,1.5105746E2,1.4096242E0,8.3510025E1,7.235675E1,6.0745693E1,4.9077984E1,2.8384743E1,7.9088007E2,1.3397464E2,9.82311E0,5.0922585E1,1.6750372E1,3.232761E1],"tree_param":{"num_deleted":"0","num_feature":"45","num_nodes":"35","size_leaf_vector":"1"}},{"base_weights":[-3.0288083E-4,-1.9222587E-1,1.2379434E0,2.6699203E-1,-5.3055793E-2,2.322989E0,-4.889399E-1,-2.881075E-1,1.6154693E0,-4.881422E-2,2.412788E-1,1.2037533E-1,-5.2848585E-2,-4.407509E-1,1.7993014E0,2.9991236E-1,-5.371946E-2,4.680029E-1,-2.1886522E-1,-3.906615E-1,-5.2909553E-2,-2.8105093E-2,1.8336762E-1,8.537837E-1,-1.3082246E-1,-4.4738986E-2,3.6120787E-2,-2.637223E-2,-5.2923728E-2,9.682205E-3,1.1555636E-1,-3.36887E-2,2.008282E-2],"categories":[],"categories_nodes":[],"categories_segments":[],"categories_sizes":[],"default_left":[0,0,0,0,0,0,0,0,0,0,0,0,0,0,0,0,0,0,0,0,0,0,0,0,0,0,0,0,0,0,0,0,0],"id":39,"left_children":[1,3,5,7,-1,9,11,13,15,-1,-1,17,-1,19,21,-1,-1,23,25,27,-1,-1,-1,29,31,-1,-1,-1,-1,-1,-1,-1,-1],"loss_changes":[1.0303845E3,5.8338074E2,1.09136E3,1.1929857E3,0E0,9.1423706E1,5.493454E0,3.6065546E2,1.3858053E3,0E0,0E0,1.818109E0,0E0,4.454056E0,6.0330353E0,0E0,0E0,1.8452346E0,1.2279694E0,1.1751335E1,0E0,0E0,0E0,9.6101236E-1,3.2785228E-1,0E0,0E0,0E0,0E0,0E0,0E0,0E0,0E0],"parents":[2147483647,0,0,1,1,2,2,3,3,5,5,6,6,7,7,8,8,11,11,13,13,14,14,17,17,18,18,19,19,23,23,24,24],"right_children":[2,4,6,8,-1,10,12,14,16,-1,-1,18,-1,20,22,-1,-1,24,26,28,-1,-1,-1,30,32,-1,-1,-1,-1,-1,-1,-1,-1],"split_conditions":[1E0,4E0,1.1276E4,1.5881852E7,-5.3055793E-2,1.6E1,1.7797E4,1E0,2E0,-4.881422E-2,2.412788E-1,9.6803526E8,-5.2848585E-2,2.37E2,1E0,2.9991236E-1,-5.371946E-2,2.9922E4,5.0869E4,1.22E3,-5.2909553E-2,-2.8105093E-2,1.8336762E-1,3.4687248E8,5.0869E4,-4.4738986E-2,3.6120787E-2,-2.637223E-2,-5.2923728E-2,9.682205E-3,1.1555636E-1,-3.36887E-2,2.008282E-2],"split_indices":[13,17,16,10,0,17,16,0,19,0,0,10,0,3,43,0,0,11,11,22,0,0,0,10,11,0,0,0,0,0,0,0,0],"split_type":[0,0,0,0,0,0,0,0,0,0,0,0,0,0,0,0,0,0,0,0,0,0,0,0,0,0,0,0,0,0,0,0,0],"sum_hessian":[4.333759E3,3.7529172E3,5.808417E2,1.5921304E3,2.1607869E3,3.5649896E2,2.2434271E2,1.1284083E3,4.6372202E2,1.0898203E1,3.4560077E2,1.3548367E1,2.1079436E2,1.0522506E3,7.6157776E1,2.8204227E2,1.8167975E2,6.5040045E0,7.0443625E0,6.749764E2,3.7727423E2,1.1212945E0,7.503648E1,3.6967106E0,2.8072937E0,5.217586E0,1.8267761E0,3.537942E2,3.2118216E2,1.4301834E0,2.2665272E0,1.7217375E0,1.085556E0],"tree_param":{"num_deleted":"0","num_feature":"45","num_nodes":"33","size_leaf_vector":"1"}},{"base_weights":[1.9646795E-3,-4.086843E-1,4.4934845E-1,-4.6035537E-1,1.2884479E0,1.0771326E0,-5.282418E-1,-3.4023347E-1,-5.3110093E-2,-2.929279E-2,1.322357E0,-5.2958716E-2,1.6894168E0,-3.2605398E-1,-5.3069647E-2,-1.6421643E-1,-5.3030062E-2,-2.9246613E-2,1.3565688E-1,2.0531592E0,1.840746E-1,-4.8094597E-2,4.0163305E-2,-5.1960107E-2,-1.2241101E-1,2.1685805E0,-5.142192E-2,-5.2859165E-2,6.3648E0,-1.0870202E-2,-4.9342573E-2,2.2559272E-1,-3.8634103E-2,6.8529046E-1,-2.933454E-2],"categories":[],"categories_nodes":[],"categories_segments":[],"categories_sizes":[],"default_left":[0,0,0,0,0,0,0,0,0,0,0,0,0,0,0,0,0,0,0,0,0,0,0,0,0,0,0,0,0,0,0,0,0,0,0],"id":40,"left_children":[1,3,5,7,9,11,13,15,-1,-1,17,-1,19,21,-1,23,-1,-1,-1,25,27,-1,-1,-1,29,31,-1,-1,33,-1,-1,-1,-1,-1,-1],"loss_changes":[7.972804E2,1.990199E2,1.2752273E3,1.848645E1,3.9865265E0,1.2454471E3,2.3039246E-1,2.7244705E1,0E0,0E0,4.036995E0,0E0,5.013225E2,1.5844349E0,0E0,6.259698E0,0E0,0E0,0E0,2.1975977E2,7.936298E2,0E0,0E0,0E0,1.8899283E0,1.5848999E2,0E0,0E0,6.2538635E1,0E0,0E0,0E0,0E0,0E0,0E0],"parents":[2147483647,0,0,1,1,2,2,3,3,4,4,5,5,6,6,7,7,10,10,12,12,13,13,15,15,19,19,20,20,24,24,25,25,28,28],"right_children":[2,4,6,8,10,12,14,16,-1,-1,18,-1,20,22,-1,24,-1,-1,-1,26,28,-1,-1,-1,30,32,-1,-1,34,-1,-1,-1,-1,-1,-1],"split_conditions":[4.321E3,1E0,4.9026E4,8E1,1E0,1E0,4.9268E4,2.37E2,-5.3110093E-2,-2.929279E-2,1E0,-5.2958716E-2,1E0,1E0,-5.3069647E-2,1E0,-5.3030062E-2,-2.9246613E-2,1.3565688E-1,1.371873E6,4.7924E4,-4.8094597E-2,4.0163305E-2,-5.1960107E-2,3.96E2,4.77E2,-5.142192E-2,-5.2859165E-2,2E0,-1.0870202E-2,-4.9342573E-2,2.2559272E-1,-3.8634103E-2,6.8529046E-1,-2.933454E-2],"split_indices":[16,0,16,16,43,41,16,3,0,0,41,0,13,41,0,42,0,0,0,9,16,0,0,0,2,19,0,0,9,0,0,0,0,0,0],"split_type":[0,0,0,0,0,0,0,0,0,0,0,0,0,0,0,0,0,0,0,0,0,0,0,0,0,0,0,0,0,0,0,0,0,0,0],"sum_hessian":[4.337704E3,2.261752E3,2.0759524E3,2.195632E3,6.611972E1,1.2640859E3,8.118664E2,8.159702E2,1.3796619E3,1.2276741E0,6.4892044E1,3.488333E2,9.152526E2,1.1343495E1,8.005229E2,4.2461108E2,3.9135913E2,1.1896725E0,6.3702374E1,7.368423E2,1.7841031E2,9.632288E0,1.7112068E0,4.3488625E1,3.8112247E2,7.0529004E2,3.1552288E1,1.6078548E2,1.7624832E1,3.687887E2,1.2333747E1,6.820881E2,2.3201948E1,1.6393764E1,1.2310675E0],"tree_param":{"num_deleted":"0","num_feature":"45","num_nodes":"35","size_leaf_vector":"1"}},{"base_weights":[-3.2912174E-3,6.599257E-1,-4.5665473E-1,1.008336E0,-5.2970167E-2,-5.304874E-2,3.4789342E-1,5.173259E-1,2.1502063E0,-5.0835574E-1,1.2530987E0,6.0780387E-2,1.5794642E0,2.2688534E0,-5.0197836E-2,-5.256767E-2,-2.3145822E-1,2.8129834E-1,-5.2609365E-2,3.1087112E-1,-4.9547666E-1,2.0792544E0,-5.20706E-2,1.8853805E0,2.6918504E0,7.2628014E-2,-4.5946326E-2,5.4653943E-2,-5.2922525E-2,-5.2329212E-2,-1.2130048E-3,2.333623E-1,-5.1760364E-2,1.1746967E-1,2.7245063E-1,2.7341533E-1,-3.8617175E-2],"categories":[],"categories_nodes":[],"categories_segments":[],"categories_sizes":[],"default_left":[0,0,0,0,0,0,0,0,0,0,0,0,0,0,0,0,0,0,0,0,0,0,0,0,0,0,0,0,0,0,0,0,0,0,0,0,0],"id":41,"left_children":[1,3,5,7,-1,-1,9,11,13,15,17,19,21,23,-1,-1,25,-1,-1,27,29,31,-1,33,35,-1,-1,-1,-1,-1,-1,-1,-1,-1,-1,-1,-1],"loss_changes":[1.3058313E3,7.314103E2,1.5341693E2,7.637843E2,0E0,0E0,1.6916455E2,4.6316122E2,1.3012915E2,4.1764832E-1,2.956184E2,9.324753E1,3.0249115E2,5.859851E1,0E0,0E0,2.1694582E0,0E0,0E0,9.1807434E1,2.7892418E0,1.5455908E2,0E0,1.215744E2,2.5055542E1,0E0,0E0,0E0,0E0,0E0,0E0,0E0,0E0,0E0,0E0,0E0,0E0],"parents":[2147483647,0,0,1,1,2,2,3,3,6,6,7,7,8,8,9,9,10,10,11,11,12,12,13,13,16,16,19,19,20,20,21,21,23,23,24,24],"right_children":[2,4,6,8,-1,-1,10,12,14,16,18,20,22,24,-1,-1,26,-1,-1,28,30,32,-1,34,36,-1,-1,-1,-1,-1,-1,-1,-1,-1,-1,-1,-1],"split_conditions":[1E0,4.5918E4,2E0,3.6614E4,-5.2970167E-2,-5.304874E-2,3.04E2,3.04E2,4.85E2,2.81E2,1E0,2E0,1.8E1,1.7E1,-5.0197836E-2,-5.256767E-2,1.265E3,2.8129834E-1,-5.2609365E-2,1.838E3,2.79E2,7.93E2,-5.20706E-2,3.09E2,1E0,7.2628014E-2,-4.5946326E-2,5.4653943E-2,-5.2922525E-2,-5.2329212E-2,-1.2130048E-3,2.333623E-1,-5.1760364E-2,1.1746967E-1,2.7245063E-1,2.7341533E-1,-3.8617175E-2],"split_indices":[41,16,41,16,0,0,19,20,20,19,6,20,17,17,0,0,20,0,0,16,20,20,0,20,6,0,0,0,0,0,0,0,0,0,0,0,0],"split_type":[0,0,0,0,0,0,0,0,0,0,0,0,0,0,0,0,0,0,0,0,0,0,0,0,0,0,0,0,0,0,0,0,0,0,0,0,0],"sum_hessian":[4.340948E3,1.7623638E3,2.5785845E3,1.363255E3,3.9910876E2,2.3621523E3,2.1643207E2,9.5433795E2,4.0891708E2,1.1144898E2,1.0498308E2,6.6818506E2,2.8615292E2,3.915456E2,1.7371475E1,1.04042305E2,7.406678E0,5.562954E1,4.9353542E1,4.6125015E2,2.069349E2,2.3115381E2,5.4999107E1,2.082297E2,1.833159E2,1.0039985E0,6.4026794E0,3.604767E2,1.0077343E2,1.9559615E2,1.1338756E1,2.1062404E2,2.0529764E1,1.1404287E2,9.418683E1,1.8094086E2,2.3750434E0],"tree_param":{"num_deleted":"0","num_feature":"45","num_nodes":"37","size_leaf_vector":"1"}},{"base_weights":[-1.8136984E-2,6.599393E-1,-4.826978E-1,1.1823765E0,-3.3741495E-1,-5.3048212E-2,6.1890185E-2,7.5192034E-1,2.4391165E0,-3.9276606E-1,2.795562E0,1.5039808E0,-5.2705146E-2,5.7638995E-2,1.4899961E0,3.7221274E-1,1.9808207E0,-4.4325122E-1,1.2709502E0,-3.0541023E-2,3.2765135E-1,-5.058966E-2,2.5378509E0,2.3540083E-1,-5.285194E-2,2.1793444E0,-5.118805E-1,2.5154493E0,3.6498636E-1,-5.054187E-1,-1.8202674E-1,-4.599351E-2,2.225016E0,2.6494074E-1,-3.4564953E-2,4.6892962E-3,6.6582896E-2,2.873938E-1,7.36021E-2,-7.0346966E-3,-5.301624E-2,2.545488E-1,-3.304055E-2,1.9403915E-1,-5.309219E-2,-5.2517302E-2,-4.1924734E-2,2.4789475E-1,-4.7792897E-2,2.724626E-1,-3.5460368E-2],"categories":[],"categories_nodes":[],"categories_segments":[],"categories_sizes":[],"default_left":[0,0,0,0,0,0,0,0,0,0,0,0,0,0,0,0,0,0,0,0,0,0,0,0,0,0,0,0,0,0,0,0,0,0,0,0,0,0,0,0,0,0,0,0,0,0,0,0,0,0,0],"id":42,"left_children":[1,3,5,7,9,-1,11,13,15,17,19,21,-1,23,25,-1,27,29,31,-1,-1,-1,33,35,-1,37,39,41,43,45,47,-1,49,-1,-1,-1,-1,-1,-1,-1,-1,-1,-1,-1,-1,-1,-1,-1,-1,-1,-1],"loss_changes":[1.3529977E3,9.103052E2,6.6360596E1,6.1823083E2,1.0533194E2,0E0,1.7617465E2,4.3815576E2,1.6431506E2,5.0246277E1,1.6747215E1,1.26249115E2,0E0,4.6150528E1,5.731145E2,0E0,1.8678052E2,9.243111E0,3.0218565E1,0E0,0E0,0E0,1.3743286E1,2.7525875E1,0E0,3.0717688E2,8.2626534E-1,1.4782837E1,7.892212E1,5.692673E-1,8.9424515E1,0E0,1.5875641E1,0E0,0E0,0E0,0E0,0E0,0E0,0E0,0E0,0E0,0E0,0E0,0E0,0E0,0E0,0E0,0E0,0E0,0E0],"parents":[2147483647,0,0,1,1,2,2,3,3,4,4,6,6,7,7,8,8,9,9,10,10,11,11,13,13,14,14,16,16,17,17,18,18,22,22,23,23,25,25,26,26,27,27,28,28,29,29,30,30,32,32],"right_children":[2,4,6,8,10,-1,12,14,16,18,20,22,-1,24,26,-1,28,30,32,-1,-1,-1,34,36,-1,38,40,42,44,46,48,-1,50,-1,-1,-1,-1,-1,-1,-1,-1,-1,-1,-1,-1,-1,-1,-1,-1,-1,-1],"split_conditions":[1E0,2.22E2,2E0,1.08E2,3.7622E4,-5.3048212E-2,1.2E2,1.838E3,1.09E2,1.44E3,1.838E3,1.07E2,-5.2705146E-2,1.7E1,2E0,3.7221274E-1,3.4686E4,1.982E3,2.86E2,-3.0541023E-2,3.2765135E-1,-5.058966E-2,3E0,3.084897E8,-5.285194E-2,1E0,3.2892E4,1.8E1,1.21E2,4.5918E4,4.7924E4,-4.599351E-2,9.26E2,2.6494074E-1,-3.4564953E-2,4.6892962E-3,6.6582896E-2,2.873938E-1,7.36021E-2,-7.0346966E-3,-5.301624E-2,2.545488E-1,-3.304055E-2,1.9403915E-1,-5.309219E-2,-5.2517302E-2,-4.1924734E-2,2.4789475E-1,-4.7792897E-2,2.724626E-1,-3.5460368E-2],"split_indices":[41,9,41,9,9,0,19,16,9,19,16,19,0,17,9,0,16,9,9,0,0,0,41,10,0,15,16,17,9,16,16,0,9,0,0,0,0,0,0,0,0,0,0,0,0,0,0,0,0,0,0],"split_type":[0,0,0,0,0,0,0,0,0,0,0,0,0,0,0,0,0,0,0,0,0,0,0,0,0,0,0,0,0,0,0,0,0,0,0,0,0,0,0,0,0,0,0,0,0,0,0,0,0,0,0],"sum_hessian":[4.293115E3,1.7452766E3,2.5478386E3,1.1452058E3,6.0007086E2,2.3423386E3,2.0550003E2,8.542187E2,2.9098706E2,5.9051276E2,9.558105E0,5.913864E1,1.4636139E2,4.407238E2,4.134949E2,7.471076E1,2.162763E2,5.7383344E2,1.6679289E1,1.3323914E0,8.225714E0,2.0261091E1,3.887755E1,3.386279E2,1.0209589E2,3.075136E2,1.059813E2,1.6208932E2,5.4186985E1,4.6276703E2,1.110664E2,6.110827E0,1.0568462E1,3.750764E1,1.3699074E0,2.36264E2,1.023639E2,2.0693552E2,1.0057808E2,4.4064817E0,1.0157482E2,1.6050075E2,1.5885792E0,1.9221392E1,3.4965595E1,3.7232034E2,9.044671E1,1.0376406E1,1.0068999E2,8.806621E0,1.7618423E0],"tree_param":{"num_deleted":"0","num_feature":"45","num_nodes":"51","size_leaf_vector":"1"}},{"base_weights":[-2.7194187E-2,-4.0943137E-1,2.3662546E0,-4.8858556E-1,-1.17042065E-1,2.6787335E-2,2.5543725E0,-4.1625392E-1,-5.298985E-1,7.9858965E-1,-5.280407E-2,2.7524465E-1,-3.0207127E-1,2.573628E-1,1.0300459E0,-4.0133187E-1,-5.1273507E-1,-5.3043474E-2,-2.9475114E-1,2.6778978E-1,1.8323818E0,4.3531743E-1,-4.8601013E-1,-3.8075086E-2,1.6647102E0,-3.896812E-1,-5.243933E-2,-5.1961076E-2,-1.8618111E-1,-4.097207E-2,-3.6903133E-3,4.6856424E-1,-4.622352E-1,-4.6079095E-2,2.035743E0,-4.602907E-2,2.8563565E-1,-5.1264513E-2,-2.9019013E-1,6.953746E-1,2.2045243E-1,-3.964908E-2,2.2303565E-1,2.3106176E-2,-3.7623968E-2,3.0762939E-2,1.17615305E-1,-3.2533403E-2,-5.1096138E-2,1.2776043E-1,2.6427898E-1,1.7019596E-2,-4.289696E-2,1.629541E-1,-3.364482E-2],"categories":[],"categories_nodes":[],"categories_segments":[],"categories_sizes":[],"default_left":[0,0,0,0,0,0,0,0,0,0,0,0,0,0,0,0,0,0,0,0,0,0,0,0,0,0,0,0,0,0,0,0,0,0,0,0,0,0,0,0,0,0,0,0,0,0,0,0,0,0,0,0,0,0,0],"id":43,"left_children":[1,3,5,7,9,11,13,15,17,19,-1,-1,21,-1,23,25,27,-1,29,31,33,35,37,-1,39,41,-1,-1,43,-1,-1,45,47,-1,49,-1,-1,-1,51,53,-1,-1,-1,-1,-1,-1,-1,-1,-1,-1,-1,-1,-1,-1,-1],"loss_changes":[3.9477817E3,8.605768E1,2.6145288E2,8.528442E0,2.992268E2,4.138015E1,1.34921875E1,1.3332672E0,7.8186035E-2,1.3471143E2,0E0,0E0,5.8089304E0,0E0,8.269933E0,1.1296692E0,2.1668243E-1,0E0,1.7703938E-1,2.4249744E1,3.9839264E1,2.0323124E1,2.5967121E-2,0E0,1.6423302E0,1.6118195E1,0E0,0E0,4.3878067E-1,0E0,0E0,1.4339327E1,7.3057175E-2,0E0,3.197232E1,0E0,0E0,0E0,4.7653186E-1,4.048508E0,0E0,0E0,0E0,0E0,0E0,0E0,0E0,0E0,0E0,0E0,0E0,0E0,0E0,0E0,0E0],"parents":[2147483647,0,0,1,1,2,2,3,3,4,4,5,5,6,6,7,7,8,8,9,9,12,12,14,14,15,15,16,16,18,18,19,19,20,20,21,21,22,22,24,24,25,25,28,28,31,31,32,32,34,34,38,38,39,39],"right_children":[2,4,6,8,10,12,14,16,18,20,-1,-1,22,-1,24,26,28,-1,30,32,34,36,38,-1,40,42,-1,-1,44,-1,-1,46,48,-1,50,-1,-1,-1,52,54,-1,-1,-1,-1,-1,-1,-1,-1,-1,-1,-1,-1,-1,-1,-1],"split_conditions":[1E0,4.86E2,2.23E2,1E0,5.6266E4,3.7E1,2.98E2,2E0,3E0,1.982E3,-5.280407E-2,2.7524465E-1,8.6E1,2.573628E-1,3.03E2,4.78E2,4.16E2,-5.3043474E-2,2.4199985E9,1.759E3,1E0,3.9E1,5.4775E4,-3.8075086E-2,1.001E3,4.71E2,-5.243933E-2,-5.1961076E-2,1.8366E4,-4.097207E-2,-3.6903133E-3,9.26E2,1.3273107E9,-4.6079095E-2,1.2E2,-4.602907E-2,2.8563565E-1,-5.1264513E-2,5.6547E4,4.71E2,2.2045243E-1,-3.964908E-2,2.2303565E-1,2.3106176E-2,-3.7623968E-2,3.0762939E-2,1.17615305E-1,-3.2533403E-2,-5.1096138E-2,1.2776043E-1,2.6427898E-1,1.7019596E-2,-4.289696E-2,1.629541E-1,-3.364482E-2],"split_indices":[6,9,9,41,9,6,6,19,41,9,0,0,6,0,6,9,9,0,10,9,43,6,11,0,9,9,0,0,11,0,0,9,10,0,19,0,0,0,11,9,0,0,0,0,0,0,0,0,0,0,0,0,0,0,0],"split_type":[0,0,0,0,0,0,0,0,0,0,0,0,0,0,0,0,0,0,0,0,0,0,0,0,0,0,0,0,0,0,0,0,0,0,0,0,0,0,0,0,0,0,0,0,0,0,0,0,0,0,0,0,0,0,0],"sum_hessian":[4.313093E3,3.7198555E3,5.932373E2,2.9268438E3,7.930116E2,4.4237263E1,5.49E2,1.0680153E3,1.8588285E3,2.4538794E2,5.4762366E2,3.9692738E0,4.026799E1,5.4147174E2,7.528305E0,9.2942706E2,1.3858821E2,1.8533464E3,5.4820905E0,1.629701E2,8.241784E1,7.766477E0,3.250151E1,2.4600127E0,5.068292E0,8.5285095E2,7.657609E1,1.3515134E2,3.4368658E0,3.384158E0,2.0979328E0,1.2809818E2,3.487193E1,6.610424E0,7.580742E1,6.2604465E0,1.5060304E0,2.7185822E1,5.3156905E0,2.6313653E0,2.4369268E0,8.514866E2,1.3643811E0,1.0080705E0,2.4287953E0,1.0553086E2,2.2567308E1,1.1168799E1,2.370313E1,3.5089222E1,4.0718197E1,1.178793E0,4.136897E0,1.0770072E0,1.5543582E0],"tree_param":{"num_deleted":"0","num_feature":"45","num_nodes":"55","size_leaf_vector":"1"}},{"base_weights":[-1.0516952E-2,6.4228433E-1,-4.5255882E-1,3.026639E-1,2.1365428E0,-4.7542033E-1,2.6523617E-1,7.447535E-1,-5.19972E-1,2.2629116E0,-4.9688805E-2,-5.3048205E-2,1.4447382E-1,1.0534539E0,-2.1644793E-1,-5.237605E-2,-3.9119145E-1,1.9780831E0,2.579928E0,2.2358496E0,-5.2731432E-2,5.617202E-1,2.2738752E0,-5.06218E-1,2.4499912E0,6.746618E-2,-4.9972832E-2,2.1418974E0,-4.874254E-2,2.6236972E-1,-3.6076237E-2,-4.5321118E-2,2.5913554E-1,2.622613E-1,4.099338E-2,2.7714935E-1,-5.208261E-2,-5.1987775E-2,-2.6266856E-2,2.7333832E-1,-3.676313E-2,1.8126382E-1,3.0650166E-1],"categories":[],"categories_nodes":[],"categories_segments":[],"categories_sizes":[],"default_left":[0,0,0,0,0,0,0,0,0,0,0,0,0,0,0,0,0,0,0,0,0,0,0,0,0,0,0,0,0,0,0,0,0,0,0,0,0,0,0,0,0,0,0],"id":44,"left_children":[1,3,5,7,9,11,-1,13,15,17,-1,-1,19,21,23,-1,25,27,29,31,-1,33,35,37,39,-1,-1,41,-1,-1,-1,-1,